{
    "input_nodes": 4,
    "hidden_nodes": 6,
    "output_nodes": 1,
    "weights_ih": {
        "rows": 6,
        "cols": 4,
        "data": [
            [
                -0.25510560050268427,
                0.4554156456879633,
                -0.23214347758061535,
                -0.7842583431909198
            ],
            [
                -0.3129054812183046,
                -0.20192555149785363,
                -0.7966832611134207,
                0.19890609659467148
            ],
            [
                -0.8344241454402976,
                0.4282144396852367,
                0.43943183054051665,
                -0.40818981286852246
            ],
            [
                0.7436982242756498,
                0.007831759772751343,
                -0.06905056730614086,
                -0.6757037683782161
            ],
            [
                1.0452903286398685,
                -0.38287304751313955,
                -0.31822039747208936,
                0.23321707930471783
            ],
            [
                0.11623776793634451,
                0.9690333650433197,
                -0.7576132079736185,
                0.8326840730842092
            ]
        ]
    },
    "weights_ho": {
        "rows": 1,
        "cols": 6,
        "data": [
            [
                -0.4611806679933502,
                0.6786060053858248,
                -0.9854994802443876,
                0.39472637385613446,
                0.21257293893372953,
                -0.1370833860492653
            ]
        ]
    },
    "bias_h": {
        "rows": 6,
        "cols": 1,
        "data": [
            [
                -0.3606617371531483
            ],
            [
                -0.8705940114946872
            ],
            [
                -0.6315074422118062
            ],
            [
                -0.3120312366449903
            ],
            [
                -0.5464101190032246
            ],
            [
                0.026140050799480077
            ]
        ]
    },
    "bias_o": {
        "rows": 1,
        "cols": 1,
        "data": [
            [
                0.15407347875676827
            ]
        ]
    },
    "learning_rate": 0.1,
    "activation_function": {}
}

[{"input_nodes":4,"hidden_nodes":6,"output_nodes":1,"weights_ih":{"rows":6,"cols":4,"data":[[0.5653310201842467,-0.75741558459263,-0.2424999791217861,-0.07130362029204407],[0.44494034957725814,-0.6054229001125411,0.7828283212053113,0.7495522530330381],[0.5808684034415481,0.9127984791789527,-0.31228258452915125,-0.5990857293014196],[0.025768346336310533,-0.9508820460774026,-0.4101977705047508,0.25521176230844556],[-0.5275292267951721,-0.21860940786787975,-0.867568037373105,-0.2605599278304864],[-0.7653533344123322,0.08598553835785094,-0.2790166416464801,-0.42205916188441983]]},"weights_ho":{"rows":1,"cols":6,"data":[[0.02488401986580313,0.6045434164391816,-0.7489365103993397,-0.6132839180503646,-0.04519864035599741,-0.32648260556264663]]},"bias_h":{"rows":6,"cols":1,"data":[[0.09699144578840335],[-0.980179781395782],[0.618560419510293],[0.5075863373716789],[0.3042881932148329],[-0.4119387482126269]]},"bias_o":{"rows":1,"cols":1,"data":[[-0.8538814450403842]]},"learning_rate":0.1,"activation_function":{}},{"input_nodes":4,"hidden_nodes":6,"output_nodes":1,"weights_ih":{"rows":6,"cols":4,"data":[[0.8168099943974961,-0.7983270312404654,-0.6634581664881496,-0.16690128360595904],[0.6832537216022874,0.6186366054621845,0.44278695807546753,0.19902843912701113],[0.44031811899200857,0.187317128395872,-0.26052058865277494,0.24850314060776899],[-0.544693052337354,-0.5181005219937372,-0.6907555579665514,0.44887304642462067],[-0.21794499149022548,0.3519421442634526,0.41141740840870733,0.8119062726006885],[0.8483916693078936,-0.4023689598168484,0.022671735921956315,0.48867425649027607]]},"weights_ho":{"rows":1,"cols":6,"data":[[0.8712580642390317,-0.9490620420872293,0.29219191633449015,-0.05196157768624908,0.1675056109743664,0.5409222203803324]]},"bias_h":{"rows":6,"cols":1,"data":[[0.3813916442995584],[-0.8482593696298006],[0.544554562605322],[-0.4116439500851107],[0.571306004972492],[0.44978519140663104]]},"bias_o":{"rows":1,"cols":1,"data":[[-0.6600542092407964]]},"learning_rate":0.1,"activation_function":{}},{"input_nodes":4,"hidden_nodes":6,"output_nodes":1,"weights_ih":{"rows":6,"cols":4,"data":[[-0.796526715474832,0.5074980844413333,0.26886454031821694,-0.038609004903535506],[0.21096491592047426,0.702779603236203,0.3142292729636321,0.7078523902767994],[-0.44087561586218604,0.4320092030691582,-0.9102217371873884,-0.97624792829061],[0.37213844716730715,-0.03225046152210352,-0.556372989653511,-0.5213030181191872],[0.8588398770582484,0.6860147282981581,-0.985344097473446,0.23310261161973633],[-0.7757526146836341,0.7487410313689629,-0.8185752434720136,0.4907595434092281]]},"weights_ho":{"rows":1,"cols":6,"data":[[-0.5731572848252147,-0.06823626007935578,0.5340254772474032,0.8900245677324361,0.7851257677511739,-0.42802924117983665]]},"bias_h":{"rows":6,"cols":1,"data":[[0.2627731843200553],[0.24141509791640953],[-0.30292012075028824],[0.6767600203244512],[0.3630332268428975],[-0.7397280017266431]]},"bias_o":{"rows":1,"cols":1,"data":[[-0.6952824219701684]]},"learning_rate":0.1,"activation_function":{}},{"input_nodes":4,"hidden_nodes":6,"output_nodes":1,"weights_ih":{"rows":6,"cols":4,"data":[[-0.803006070008082,0.43118127868046874,0.21574259944964835,-0.030772824769642083],[0.30942238766235647,0.6491842548793061,0.22210270970783763,0.7387152706508214],[-0.443106261639755,0.47966115594927916,-0.9494755460334756,-1.014129292785937],[0.4129599686301708,0.03893320866134041,-0.5355143366554983,-0.569127182694323],[0.8279919533810483,0.6340142693365582,-1.0699807304165674,0.23348605610954634],[-0.8528487340335583,0.8033270273192042,-0.9173841806011989,0.5619077778740593]]},"weights_ho":{"rows":1,"cols":6,"data":[[-0.5687253111676365,-0.08939266566303852,0.5242778240958264,0.911446344730717,0.700357230846745,-0.5198183893292767]]},"bias_h":{"rows":6,"cols":1,"data":[[0.17884412346223066],[0.31915480153712683],[-0.20826421820469912],[0.6906850630358783],[0.31995770215078057],[-0.7704808761094553]]},"bias_o":{"rows":1,"cols":1,"data":[[-0.6805491173457734]]},"learning_rate":0.1,"activation_function":{}},{"input_nodes":4,"hidden_nodes":6,"output_nodes":1,"weights_ih":{"rows":6,"cols":4,"data":[[-0.8818385146493767,0.5089129717337273,0.30095035063895215,-0.023217046362002565],[0.30600727587209126,0.6743438058061046,0.13299164944661365,0.7164057764649922],[-0.4290512889584813,0.4140728160350966,-1.0470391069466645,-1.0693212710557103],[0.4352391654795325,0.13547584570495147,-0.612156503477563,-0.5813807665133001],[0.884334127206093,0.5394377265197836,-1.105341742716234,0.23528983833871392],[-0.8443076092368014,0.8464333064726719,-0.8309004973428344,0.4813530755489406]]},"weights_ho":{"rows":1,"cols":6,"data":[[-0.5626077436250578,-0.0675970292931361,0.5139281648885153,0.9312911269309022,0.6768571390224628,-0.559462145047419]]},"bias_h":{"rows":6,"cols":1,"data":[[0.20423421208972106],[0.35862169473659755],[-0.19103619471076452],[0.658141126663372],[0.32398917266463556],[-0.7100890698469435]]},"bias_o":{"rows":1,"cols":1,"data":[[-0.648311450979068]]},"learning_rate":0.1,"activation_function":{}},{"input_nodes":4,"hidden_nodes":6,"output_nodes":1,"weights_ih":{"rows":6,"cols":4,"data":[[0.8734687390726203,-0.7514565279956926,-0.8972874324506318,0.9617686999778606],[-0.9917602141221479,0.3192049043059748,-0.027828755698780155,-0.18405357568530664],[-0.3658374294997031,-0.680923094795012,-0.08209176799400436,-0.6904260188614747],[0.013692237961587361,0.5166227113195825,-0.9000500493930611,-0.2542110336605746],[-0.2896209535380194,-0.26967969074498477,-0.6580279624004396,0.3841033006658182],[-0.39061960889022995,-0.2846065440829167,-0.7603760408831507,0.8091009809191267]]},"weights_ho":{"rows":1,"cols":6,"data":[[0.6013814113647569,-0.7078352920859745,0.766060891392007,0.23440108994544456,-0.062133565300522636,-0.7459849157909167]]},"bias_h":{"rows":6,"cols":1,"data":[[0.8112283619844429],[-0.8771576799219566],[0.1754917487525337],[0.25523600720820827],[-0.07812948281367582],[-0.98022765348183]]},"bias_o":{"rows":1,"cols":1,"data":[[0.7668869216826266]]},"learning_rate":0.1,"activation_function":{}},{"input_nodes":4,"hidden_nodes":6,"output_nodes":1,"weights_ih":{"rows":6,"cols":4,"data":[[-0.7836156638447253,-0.9861702613459327,1.0404624744452005,0.7976929268290156],[0.877376339111114,0.36571956710364895,-0.010409474237409844,0.6843683819567737],[0.41848007595272957,0.14426560522089604,-0.11945585053214562,0.5835469707850774],[0.6188890797148648,-0.19100531399393192,-0.9494013673879467,1.0343183556776963],[0.8838880600025928,-1.0716780646457944,0.08939353424534657,0.5563425770673555],[-0.21813801961244664,-0.5075503216902161,1.0710755346228893,-0.6904841033657466]]},"weights_ho":{"rows":1,"cols":6,"data":[[-0.4064673391901732,1.0206826939093598,0.3463891317359721,0.8718283334707089,-0.6515331774327533,0.762001682767663]]},"bias_h":{"rows":6,"cols":1,"data":[[0.5819977541694039],[-0.34166667475899554],[0.8526377571142133],[0.1902590700620559],[0.3860996545992077],[-0.6092984335659581]]},"bias_o":{"rows":1,"cols":1,"data":[[0.8438132495486905]]},"learning_rate":0.1,"activation_function":{}},{"input_nodes":4,"hidden_nodes":6,"output_nodes":1,"weights_ih":{"rows":6,"cols":4,"data":[[-1.0712192323868956,0.5858483101919111,0.1658046073090955,0.02801624475453713],[0.2390738228209707,0.576640087877553,0.08521908551398516,0.7626615309952243],[-0.4736617091012238,0.43988281213651764,-0.9904182953258859,-1.0322568427375516],[0.5000858725188244,0.09572453599721525,-0.7374037548075968,-0.628027494630974],[0.8552226281806703,0.5078706251313223,-1.0459963951807218,0.10281517225439576],[-0.9689110455064217,0.898313236120701,-0.7615219074870828,0.321756354446171]]},"weights_ho":{"rows":1,"cols":6,"data":[[-0.6334922515954199,-0.18104317009502313,0.5725138770177748,0.7039257407362074,0.7818426193553408,-0.5243444750719831]]},"bias_h":{"rows":6,"cols":1,"data":[[0.267564171435629],[0.18540995789612835],[-0.10819649737872125],[0.7426482586665302],[0.2980404122772532],[-0.522171183327976]]},"bias_o":{"rows":1,"cols":1,"data":[[-0.5967639530422093]]},"learning_rate":0.1,"activation_function":{}},{"input_nodes":4,"hidden_nodes":6,"output_nodes":1,"weights_ih":{"rows":6,"cols":4,"data":[[-0.8363488542178876,0.8207569114429667,0.39963137636786905,-0.16529327744518343],[0.2900230862675595,0.44349436456667396,0.03850777111295099,0.5427272484859281],[-0.5094415209254272,0.4624084860922403,-0.8809618627312799,-0.8887920782644604],[0.5668312999654387,0.2172550330583672,-0.6777137734112872,-0.7718835575128775],[0.8200112782005009,0.5571873850928186,-1.2304897946030362,0.3431253487756803],[-0.9326589225141876,0.7865526421717126,-1.0720317229999945,0.553847478953325]]},"weights_ho":{"rows":1,"cols":6,"data":[[-0.7582161075023713,-0.03675322007283176,0.4123939762924492,0.8413620400141965,0.8338637871478294,-0.5335067853721183]]},"bias_h":{"rows":6,"cols":1,"data":[[0.4359951245967546],[0.3608971147155084],[-0.17996626079118883],[0.6852248373162442],[0.40571354921751224],[-0.8802613126202712]]},"bias_o":{"rows":1,"cols":1,"data":[[-0.5511289918794582]]},"learning_rate":0.1,"activation_function":{}},{"input_nodes":4,"hidden_nodes":6,"output_nodes":1,"weights_ih":{"rows":6,"cols":4,"data":[[-0.882107122562584,0.7398526428758613,0.39167617117531217,-0.19807703125209425],[0.2695428219416518,0.3738462334249901,-0.04358054302185477,0.5763883507576941],[-0.603677446696397,0.45234059362699375,-0.8296029574980798,-0.922823803237288],[0.654659615147007,0.23971570686323457,-0.7072822814772932,-0.7265791627515956],[0.9045241369591017,0.5077864801466346,-1.2065144994383363,0.3500202322990359],[-0.9976104414010571,0.7399671968467136,-1.0204691572317,0.49203130321459165]]},"weights_ho":{"rows":1,"cols":6,"data":[[-0.8020604910268477,-0.0526320338052325,0.4948247664423042,0.7956634780119114,0.9189695517233276,-0.5609480553948498]]},"bias_h":{"rows":6,"cols":1,"data":[[0.5203991659105184],[0.40528522846138737],[-0.1253126308725168],[0.7073242371183646],[0.40327693116788915],[-0.8010459979552245]]},"bias_o":{"rows":1,"cols":1,"data":[[-0.577744170753675]]},"learning_rate":0.1,"activation_function":{}},{"input_nodes":4,"hidden_nodes":6,"output_nodes":1,"weights_ih":{"rows":6,"cols":4,"data":[[-0.8985389212411172,0.7329057252732276,0.3036350586782609,-0.23581426874347775],[0.29840680388943114,0.4245351000079367,0.16589254806790432,0.4527479334860691],[-0.5429533107305087,0.3812288513888368,-0.8385424647604519,-0.7831287026449727],[0.5276177025481358,0.324424766942662,-0.7307510904754095,-0.7968294891256488],[0.8138525488184217,0.6226899772519239,-1.224140323412416,0.26330084403773935],[-0.870042372796087,0.7389522151263346,-1.0857369251097637,0.5334478937633421]]},"weights_ho":{"rows":1,"cols":6,"data":[[-0.7621975721532226,0.10521464444596772,0.3757303407652397,0.7863169822388326,0.8078360012569668,-0.6277228562011443]]},"bias_h":{"rows":6,"cols":1,"data":[[0.3761317693106037],[0.26776939316458315],[-0.018720451007496447],[0.7622596718131404],[0.3834278728570828],[-0.7017643786492326]]},"bias_o":{"rows":1,"cols":1,"data":[[-0.5454120140397144]]},"learning_rate":0.1,"activation_function":{}},{"input_nodes":4,"hidden_nodes":6,"output_nodes":1,"weights_ih":{"rows":6,"cols":4,"data":[[-0.9870323935530784,0.8639439426739387,0.4136870022688377,-0.15464686543175885],[0.3746193689928161,0.6153811380838716,0.10026294248617029,0.6411564330871353],[-0.4052089977613722,0.4236280523104649,-0.921522832512015,-0.9383304050299264],[0.6513777185329752,0.2750605671949355,-0.7153653072131178,-0.7127503038083546],[0.7874370942368729,0.6029735936334963,-1.0997755575053956,0.2927023272850354],[-0.7115958988534641,0.917623285723118,-1.0663644231685487,0.4990274302814026]]},"weights_ho":{"rows":1,"cols":6,"data":[[-0.8878668208939056,0.06256404456699782,0.32282470839366073,0.8459192714626019,0.8846207934056198,-0.5823468959056444]]},"bias_h":{"rows":6,"cols":1,"data":[[0.482756598325472],[0.21510599849434425],[-0.14958429076994686],[0.7611126238420549],[0.5203543705086805],[-0.8734203277432734]]},"bias_o":{"rows":1,"cols":1,"data":[[-0.4495420464634491]]},"learning_rate":0.1,"activation_function":{}},{"input_nodes":4,"hidden_nodes":6,"output_nodes":1,"weights_ih":{"rows":6,"cols":4,"data":[[-0.830394324719504,0.4222631363494836,0.4120555480471643,0.047771210285360896],[0.3614026395340336,0.618126527884772,0.2539452075423213,0.6076803556622051],[-0.5607213763695795,0.572346209824474,-1.1674730799300022,-1.295412329904513],[0.6400251146416038,0.05619754453151721,-0.6865471706674507,-0.4851154566111968],[0.7826462584303266,0.4703478024223432,-1.3336262375021883,0.4128886665025547],[-0.9895464221463781,0.9060968983805929,-0.8559704462271356,0.38528818151283206]]},"weights_ho":{"rows":1,"cols":6,"data":[[-0.6381428849528881,0.004006530849809231,0.4413882349795337,0.8896104346319477,0.8439027143984008,-0.8483494333485799]]},"bias_h":{"rows":6,"cols":1,"data":[[0.34738484831018124],[0.1354754935138351],[-0.4668714693481578],[0.47576035307099007],[0.5136561730318343],[-0.813108525300773]]},"bias_o":{"rows":1,"cols":1,"data":[[-0.5888927874258443]]},"learning_rate":0.1,"activation_function":{}},{"input_nodes":4,"hidden_nodes":6,"output_nodes":1,"weights_ih":{"rows":6,"cols":4,"data":[[-0.9663729943054067,0.6442608476031494,0.6626312488478605,-0.3200200924265245],[0.2297258457081533,0.6799677139765016,-0.012454933623377643,0.748035183276273],[-0.5903438038177192,0.44841503442840114,-1.285539564813995,-1.2586122452512574],[0.6192558474838946,0.08038885405149399,-0.541812138679175,-0.49960708230841994],[0.9349791534805918,0.44623779900877536,-1.1098371449989146,0.20438020672236584],[-1.0797317089574305,0.8589440966973794,-0.7473027052893608,0.7159056036685754]]},"weights_ho":{"rows":1,"cols":6,"data":[[-0.8423873729715177,0.015331791811149874,0.44844543499790884,0.8706627075288862,1.03537086435955,-0.5938882688287414]]},"bias_h":{"rows":6,"cols":1,"data":[[0.3423434372729651],[0.4864898676959901],[-0.12745289293317721],[0.5025196545532663],[0.5114534656027422],[-0.7477502318918233]]},"bias_o":{"rows":1,"cols":1,"data":[[-0.6777676064673084]]},"learning_rate":0.1,"activation_function":{}},{"input_nodes":4,"hidden_nodes":6,"output_nodes":1,"weights_ih":{"rows":6,"cols":4,"data":[[-0.9928109074452214,0.7142632731552723,0.7620212510283717,-0.2951342290200374],[0.18579775463343945,0.7562999151614003,-0.07931488508086064,0.7650653103433451],[-0.5321936652345804,0.4245664590152208,-1.3388065730379282,-1.3395784584758381],[0.642440456168281,0.05357733467680871,-0.5367811258989703,-0.489013125709995],[1.032268505695463,0.4834394259763631,-1.1306719408077759,0.13788270195600807],[-1.0417108466300549,0.7631684839400621,-0.6625628113852051,0.7228044187412109]]},"weights_ho":{"rows":1,"cols":6,"data":[[-0.7623640112641157,0.04632972711718061,0.5124479111633402,0.7754876770833898,1.0847382658710365,-0.5259302466630636]]},"bias_h":{"rows":6,"cols":1,"data":[[0.24544763875276315],[0.40528843615228033],[-0.07912299738999962],[0.51532460969894],[0.6041629266668584],[-0.7011046980155763]]},"bias_o":{"rows":1,"cols":1,"data":[[-0.650228961734763]]},"learning_rate":0.1,"activation_function":{}},{"input_nodes":4,"hidden_nodes":6,"output_nodes":1,"weights_ih":{"rows":6,"cols":4,"data":[[-0.9179728600300959,0.9982166853651779,0.35587092338696513,0.08954757959305869],[0.2965025542410081,0.37572271197556545,0.09689085759197007,0.7674484528239572],[-0.39292933053459544,0.45115324128679124,-0.9376581522375379,-1.0471623329848183],[0.7812526107290716,-0.037685854015114276,-0.5163184742561348,-0.5772874601189386],[0.7976402663355483,0.37023971972394965,-1.1196810549509635,0.7149373508919034],[-1.2216233609789955,0.7438102060896379,-0.7947674217939397,0.3357729616916942]]},"weights_ho":{"rows":1,"cols":6,"data":[[-0.9702624608233024,0.11260006803485921,0.4226030684275296,0.7281708995607878,0.9029623284923746,-0.683247884292984]]},"bias_h":{"rows":6,"cols":1,"data":[[0.3931950799980417],[0.4873708245018198],[-0.20189992498444104],[0.8528589751366727],[0.4341015236492546],[-0.7072636059098971]]},"bias_o":{"rows":1,"cols":1,"data":[[-0.5412416545617936]]},"learning_rate":0.1,"activation_function":{}},{"input_nodes":4,"hidden_nodes":6,"output_nodes":1,"weights_ih":{"rows":6,"cols":4,"data":[[-1.066052498773234,1.063878472636175,0.4533430731912029,-0.19030460066535182],[0.14311535430766703,0.3301029608530083,-0.19855654860323962,0.7911091242246644],[-0.7469569885445375,0.3385700125549801,-0.5102333209720793,-0.7009006229643623],[0.6639285351431725,0.19991238944677298,-0.5062744849887868,-0.5276657828276154],[0.8467278762470153,0.5348756318848676,-1.153750214026996,0.4189281523036814],[-0.8876263345317971,0.7626295792561408,-1.1821134699597748,0.41042730169513847]]},"weights_ho":{"rows":1,"cols":6,"data":[[-0.7818569483659341,-0.0933270390367979,0.3126379760806248,0.8848739789935264,0.6023230311881734,-0.8679692052195043]]},"bias_h":{"rows":6,"cols":1,"data":[[0.19445642470439098],[0.09860584013671653],[-0.0644039588025547],[0.794127874183038],[0.36286396404640064],[-0.6588771280221781]]},"bias_o":{"rows":1,"cols":1,"data":[[-0.5432914905711984]]},"learning_rate":0.1,"activation_function":{}}]
[{"input_nodes":4,"hidden_nodes":6,"output_nodes":1,"weights_ih":{"rows":6,"cols":4,"data":[[0.5523420153178582,0.8671288840477376,0.9056434664685948,0.3210090625897888],[0.3920231533451046,-0.1424323165048924,-0.3457041033174528,-0.08940847949332564],[-0.4073589413838492,-0.504000945246543,0.3895529937555995,-0.46888829109955443],[-0.9868468319340331,0.5758637690441359,-0.20278006253443692,-0.5395958558901226],[0.20589830351503702,-0.379625884128445,-0.4127851239447542,-0.7894830078137656],[-0.2564824735831561,-0.9334707553093755,-0.8828455665159334,-0.6791751808041879]]},"weights_ho":{"rows":1,"cols":6,"data":[[-0.14197524453251575,0.16383029635864,-0.012599775944528435,0.7103913440728118,0.37909644336613413,-0.8551765848559507]]},"bias_h":{"rows":6,"cols":1,"data":[[0.23736016833988827],[-0.7697108662789802],[0.6523551620652006],[0.1454179652872143],[0.760554894654242],[-0.1889811257144529]]},"bias_o":{"rows":1,"cols":1,"data":[[-0.5624038394548383]]},"learning_rate":0.1,"activation_function":{}},{"input_nodes":4,"hidden_nodes":6,"output_nodes":1,"weights_ih":{"rows":6,"cols":4,"data":[[0.5748039012410463,-0.7006636676317117,0.5452834269510602,0.02179815697980858],[0.6084765507363646,-0.8045653945544256,-0.2833075142400085,0.4286395228319525],[-0.3490834868249368,0.30299553755546227,0.5967479149614886,0.8036919455010799],[-1.0129955398230466,0.442820749877217,0.3423235239365404,-0.8246930011011214],[-0.21831153836410622,0.8029104974973759,-0.3097770173035756,0.5265156987517468],[-0.054307167294164,0.16653876097337827,-0.5249167577241917,-0.5027166638667658]]},"weights_ho":{"rows":1,"cols":6,"data":[[0.33411372219664615,0.5447905131837429,-0.5571811438474866,-0.2670936340590522,-0.7638390237742401,-1.0693269406333603]]},"bias_h":{"rows":6,"cols":1,"data":[[0.4982119014149133],[0.2637438618083366],[0.7563540381743512],[-0.6622923315438094],[-0.49211374199997704],[-1.0020508619603314]]},"bias_o":{"rows":1,"cols":1,"data":[[0.46194999808843734]]},"learning_rate":0.1,"activation_function":{}},{"input_nodes":4,"hidden_nodes":6,"output_nodes":1,"weights_ih":{"rows":6,"cols":4,"data":[[0.013675306404789311,-0.41700808346155976,0.27527327719484385,0.8061916337186839],[-0.809211347086855,0.6658877598771572,-0.9493925435376501,1.0024248051007307],[0.34486037980142686,-0.4044256890765891,0.9591233002240873,1.0081011369741542],[-0.7879685999159823,-0.3925534682600248,0.6046262882882671,-0.15820979277930444],[-0.45508010310086056,0.44375968674454414,0.82730644222432,-0.11752336297599836],[-0.38514375185062866,0.17167254515559283,-0.033207047082669985,0.9561148868838579]]},"weights_ho":{"rows":1,"cols":6,"data":[[-0.034282587837698345,0.15673208519560528,0.5518265591837964,0.527427559454085,0.12172683205151691,0.8802051307043414]]},"bias_h":{"rows":6,"cols":1,"data":[[0.3148172922004992],[-0.3383144270852981],[-0.7211782707449935],[-0.14449884234210034],[-0.7272207260074118],[0.7588277855086065]]},"bias_o":{"rows":1,"cols":1,"data":[[0.659910704707432]]},"learning_rate":0.1,"activation_function":{}},{"input_nodes":4,"hidden_nodes":6,"output_nodes":1,"weights_ih":{"rows":6,"cols":4,"data":[[0.5536465081429023,-0.6154268532158937,0.5807932095626415,0.14470499596013844],[0.7097666198328387,-0.8139247243680008,-0.2074438346427007,0.5227037247500539],[-0.4584878660157333,0.1809571321190403,0.550879381325085,0.7344384904164414],[-0.9375866819240798,0.30045542329857455,0.3630492432209041,-0.7701294059785284],[-0.3247045317826738,0.824633454199668,-0.1500870455815746,0.5042280632978786],[-0.12582377448102905,0.15178062801897535,-0.5206940092052003,-0.49114381184193445]]},"weights_ho":{"rows":1,"cols":6,"data":[[0.23374675813772425,0.5531651383463214,-0.5284226119924166,-0.2923130581359973,-0.7055888646765182,-1.1250659682708266]]},"bias_h":{"rows":6,"cols":1,"data":[[0.40647216288504184],[0.28815842865988084],[0.6153860319085346],[-0.4723858863114243],[-0.40485865764340573],[-1.102313561968696]]},"bias_o":{"rows":1,"cols":1,"data":[[0.4763853333919349]]},"learning_rate":0.1,"activation_function":{}},{"input_nodes":4,"hidden_nodes":6,"output_nodes":1,"weights_ih":{"rows":6,"cols":4,"data":[[0.3008349901890082,0.5321631538419386,0.48015654551789233,-0.0866296551707431],[-0.811178388877471,0.19687789364147545,-0.022170587520625853,-0.819725789005598],[-0.21957609525416208,0.17266950581076584,0.8385438459551107,-0.20455999905960737],[0.35107026590282636,0.4481560858446756,0.2319781730893442,0.1488342216223778],[1.0470258450348342,0.12681932883860525,1.0403373096193462,0.4420924116779229],[-0.07684115415486333,-1.0235427037577973,-0.7278724515749843,0.20359124595546316]]},"weights_ho":{"rows":1,"cols":6,"data":[[-0.47502371159861156,0.5300676740585932,0.4379234564309412,0.35680647921194125,0.5158168479135039,-0.7900772587005234]]},"bias_h":{"rows":6,"cols":1,"data":[[0.326154525967568],[0.19360381983199587],[-0.09065039199922478],[0.2320205393330154],[0.027459221594058975],[0.6852038602472111]]},"bias_o":{"rows":1,"cols":1,"data":[[0.6862135631185766]]},"learning_rate":0.1,"activation_function":{}},{"input_nodes":4,"hidden_nodes":6,"output_nodes":1,"weights_ih":{"rows":6,"cols":4,"data":[[0.5173132740319756,-0.5687338452314538,0.6289920555304878,0.3028739058889963],[0.7690186584537884,-0.8252842827249038,-0.1781155687278952,0.5558085413605103],[-0.5344258738437683,0.29421938754409016,0.5176916618429213,0.8511993347748048],[-0.805344708780585,0.24753772096217508,0.4760337365144054,-0.7509573057562337],[-0.3824799852083245,0.7822948589939522,-0.2604888357793091,0.5035411544431178],[-0.17452335867146096,0.11932842102277291,-0.46771230963482424,-0.5073182775752837]]},"weights_ho":{"rows":1,"cols":6,"data":[[0.12323051492242115,0.5608027811866074,-0.5747192823449403,-0.33761996103327363,-0.6684319971873764,-1.2424509034849691]]},"bias_h":{"rows":6,"cols":1,"data":[[0.4632317752309227],[0.2554492531107123],[0.6224485946676552],[-0.5655536615997352],[-0.4023056856676104],[-1.095551533283344]]},"bias_o":{"rows":1,"cols":1,"data":[[0.5783950355837292]]},"learning_rate":0.1,"activation_function":{}},{"input_nodes":4,"hidden_nodes":6,"output_nodes":1,"weights_ih":{"rows":6,"cols":4,"data":[[0.47555907217117943,-0.6021663243618265,0.6986350980534806,0.25149628290760573],[0.8055089309311759,-0.7429233586372886,-0.1375659233335193,0.5439504820937604],[-0.3482209329179134,0.14346910710028768,0.6779496612962695,0.7673033739345047],[-0.9892319045338921,0.37613095355066206,0.4609043782428438,-0.6915063940086883],[-0.2633714609846201,0.7304686590881875,-0.11204874361127054,0.48418858311632157],[-0.2251632117896935,0.05911544599061974,-0.573583469838276,-0.5879173845802903]]},"weights_ho":{"rows":1,"cols":6,"data":[[0.24699212943218996,0.38806286480313346,-0.6050295514727229,-0.1533795911494381,-0.6237567163715556,-0.9101786249105275]]},"bias_h":{"rows":6,"cols":1,"data":[[0.6138783310538185],[0.12119669392326682],[0.5913020600429939],[-0.4683090328856777],[-0.2691012890705506],[-1.0532529890754634]]},"bias_o":{"rows":1,"cols":1,"data":[[0.521115168190296]]},"learning_rate":0.1,"activation_function":{}},{"input_nodes":4,"hidden_nodes":6,"output_nodes":1,"weights_ih":{"rows":6,"cols":4,"data":[[0.38439526899036147,-0.47674289055008956,0.7045001981872793,0.4417025175790105],[0.8197795486229502,-0.9366559928992757,-0.08338112490082118,0.6712281335212178],[-0.4589376218692207,0.3667086363124153,0.46571817068268484,0.8314148828086839],[-0.8178215494461539,0.36880044403409973,0.5359510276989853,-0.8841107098725404],[-0.2458184607913713,0.8593337493193595,-0.22976782625055048,0.41802133653828555],[-0.20182350702663765,0.061424796537304815,-0.34218656837194195,-0.5064420547685566]]},"weights_ho":{"rows":1,"cols":6,"data":[[0.26532619417140313,0.5393253629022127,-0.4418384426204685,-0.22316795533065203,-0.7951222009841852,-1.33181000160893]]},"bias_h":{"rows":6,"cols":1,"data":[[0.4360528360332803],[0.11709256956377362],[0.5268079014898159],[-0.503313569921646],[-0.41438690678531004],[-1.0277940127136307]]},"bias_o":{"rows":1,"cols":1,"data":[[0.5347432951372093]]},"learning_rate":0.1,"activation_function":{}},{"input_nodes":4,"hidden_nodes":6,"output_nodes":1,"weights_ih":{"rows":6,"cols":4,"data":[[0.6597707305997101,-0.48629943378719154,0.6734755133969859,0.18401481097580769],[0.6889158462527338,-0.6238369873010404,-0.16461625442445765,0.5222456246007221],[-0.33529381395354824,0.3939017533532573,0.519239810406732,1.0234303163415954],[-0.8893964351518794,0.2736181540001079,0.3575654727881859,-0.9882767269891707],[-0.529076199403485,0.8443805378460857,-0.17196476055651255,0.43242119562445164],[-0.09786106961748364,0.08380854685761285,-0.2791308580472572,-0.4258110636786009]]},"weights_ho":{"rows":1,"cols":6,"data":[[0.2869973571504225,0.6123083956503986,-0.5539767323127706,-0.20149656905247232,-0.7174371375385652,-0.9767658532915323]]},"bias_h":{"rows":6,"cols":1,"data":[[0.23946756160742344],[-0.02929145779639336],[0.6074540678412577],[-0.49653817619671126],[-0.4301210188455754],[-1.2043816671735577]]},"bias_o":{"rows":1,"cols":1,"data":[[0.4082445641189807]]},"learning_rate":0.1,"activation_function":{}},{"input_nodes":4,"hidden_nodes":6,"output_nodes":1,"weights_ih":{"rows":6,"cols":4,"data":[[0.27785724654260296,-0.4528466380588546,0.5499745498153538,0.042593846524132686],[0.6905947175535265,-0.7192933015807056,-0.16401387254432565,0.4180266313686719],[-0.2476067729607338,0.18397725945573015,0.5510495384991424,0.7221355371126751],[-0.8705760416371597,0.49434400270366646,0.35227696718238666,-0.5935067599983584],[-0.39195754138565725,0.9827719931952432,-0.22342557065279645,0.5895533645739048],[-0.31217114554778197,0.07170418010846905,-0.3935432841976878,-0.4276492643069708]]},"weights_ho":{"rows":1,"cols":6,"data":[[0.1939445341155596,0.7100349734987809,-0.4362453851347676,-0.35969245820311246,-0.6412862740677355,-0.9571255390980432]]},"bias_h":{"rows":6,"cols":1,"data":[[0.26223536706772593],[0.3326529018312393],[0.5368237980438754],[-0.5143301910324689],[-0.585862647875446],[-0.9162277279143128]]},"bias_o":{"rows":1,"cols":1,"data":[[0.33977719299951237]]},"learning_rate":0.1,"activation_function":{}},{"input_nodes":4,"hidden_nodes":6,"output_nodes":1,"weights_ih":{"rows":6,"cols":4,"data":[[0.5015219459357536,-0.5857870690633918,0.7374079954242686,0.17439098950743842],[0.9264578946410124,-0.8445056883775081,-0.12997858530140036,0.5753803362796067],[-0.5759127727359873,0.483353898859134,0.35493976572201164,0.8460875861202626],[-0.9719490302873037,0.2720196190680574,0.4911669736156501,-0.8669030950278206],[-0.4502863192321904,0.6933773969924862,-0.11126872683494306,0.4760648853199062],[-0.06528530179821394,0.09397010361688592,-0.43363603917395205,-0.4890909029436151]]},"weights_ho":{"rows":1,"cols":6,"data":[[0.47409862448117823,0.6270210237777838,-0.4592078727769874,-0.27781154586740847,-0.6900404009330899,-1.1574102534481814]]},"bias_h":{"rows":6,"cols":1,"data":[[0.3678166655078894],[0.17755549282756466],[0.896567921720658],[-0.6993435358117264],[-0.5001155411457769],[-1.2245463444332876]]},"bias_o":{"rows":1,"cols":1,"data":[[0.2425566353799452]]},"learning_rate":0.1,"activation_function":{}},{"input_nodes":4,"hidden_nodes":6,"output_nodes":1,"weights_ih":{"rows":6,"cols":4,"data":[[0.4994125133864121,-0.6608493405868572,0.8063904632300753,0.1549267091739218],[0.851908483706249,-0.769999584021243,0.05044168075300215,0.669192422254101],[-0.41265462004377323,0.15468879481174144,0.4051600844742964,0.801600173602478],[-0.83027670142986,0.403671241632775,0.5180678027149352,-0.8503024577259517],[-0.3382583845506154,0.9270525876532324,0.014945041413303405,0.5383017841039864],[-0.08324071694936977,0.06906877253691913,-0.4174632486484865,-0.5686299166607027]]},"weights_ho":{"rows":1,"cols":6,"data":[[0.26204246372199,0.37715998333635115,-0.69252199726929,-0.3381172667008595,-0.6862932309963239,-1.1430481389458262]]},"bias_h":{"rows":6,"cols":1,"data":[[0.6677630582541033],[0.06886473101475127],[0.2564622265880063],[-0.7539922896426141],[-0.22035647323250487],[-1.0399606646339918]]},"bias_o":{"rows":1,"cols":1,"data":[[0.6849858009733634]]},"learning_rate":0.1,"activation_function":{}},{"input_nodes":4,"hidden_nodes":6,"output_nodes":1,"weights_ih":{"rows":6,"cols":4,"data":[[0.981968326616826,-0.6535183018850999,0.21346340123676097,0.07496335311408592],[0.5497200724924806,-0.5807811773225304,-0.42707175764997435,0.3156017104780967],[-0.3373402922164541,-0.16902061706191304,0.5817818095086345,0.8954288372438768],[-0.7756615993104532,0.18897369769903688,0.6792741778679646,-0.7727190484061869],[-0.5489729325659254,0.8154961689708871,-0.264764273826677,0.7074235634531421],[0.1377955372102881,0.20729122380768722,-0.8148325870942238,-0.34380151865303743]]},"weights_ho":{"rows":1,"cols":6,"data":[[0.19617722074879132,0.652846223639392,-0.5335740640228015,0.017190568252563904,-0.6752241072999948,-1.1891391903644173]]},"bias_h":{"rows":6,"cols":1,"data":[[0.394243905809034],[0.2262323855501635],[0.49969266605205054],[-0.6382566629151127],[0.07147646817456517],[-1.1755809467434675]]},"bias_o":{"rows":1,"cols":1,"data":[[0.4280236370715178]]},"learning_rate":0.1,"activation_function":{}},{"input_nodes":4,"hidden_nodes":6,"output_nodes":1,"weights_ih":{"rows":6,"cols":4,"data":[[0.4282558663505591,-0.7181903180664948,0.49386374803919286,0.11369289081771825],[0.9729740500583307,-0.9317702479639055,-0.21866979323054392,0.520431952331487],[-0.30149869598095996,0.11946665665713957,0.7991036034951075,0.8826523815734805],[-0.9834228995424483,0.4313351367381525,0.22313205534794914,-0.4723020158385829],[-0.5794856730044635,0.967862432367176,-0.10050883174132114,0.4713890345452243],[-0.2982143046992896,-0.08063576547381378,-0.32213013845378863,-0.3897104433336222]]},"weights_ho":{"rows":1,"cols":6,"data":[[0.23785569833461387,0.5157695581257525,-0.6944199123096595,-0.5816911123860168,-0.6853940847501103,-0.8548789208850381]]},"bias_h":{"rows":6,"cols":1,"data":[[0.398594340777193],[0.6640359412334174],[0.3793961157407355],[-0.8243820407659136],[-0.6676294300983604],[-0.8087020178710247]]},"bias_o":{"rows":1,"cols":1,"data":[[0.5424270847403647]]},"learning_rate":0.1,"activation_function":{}},{"input_nodes":4,"hidden_nodes":6,"output_nodes":1,"weights_ih":{"rows":6,"cols":4,"data":[[0.6905244230845502,-0.3788341307248044,0.7970245681658796,0.0979230752248515],[0.894124296341895,-0.7203091600061023,-0.06853271962688035,0.5792476321322381],[-0.4406945915149638,0.33880930742416154,0.6688113803594785,0.8121647494876274],[-0.7884799580142136,0.20722809736409686,0.40426410518474754,-1.1084197418961972],[-0.7349270830379154,0.8042474322886468,0.0375694024571248,0.473219933575342],[0.029165564488033077,0.17463521760123862,-0.39064143421208614,-0.5337840101091782]]},"weights_ho":{"rows":1,"cols":6,"data":[[0.2732753055756756,0.7276284239147092,-0.7203051515204515,-0.05241612440688481,-0.7927514246630849,-0.9457044039299413]]},"bias_h":{"rows":6,"cols":1,"data":[[0.23263935317323617],[0.07022318364228677],[0.5105729975965847],[-0.3766445376486555],[-0.6021618186852371],[-1.209051899098028]]},"bias_o":{"rows":1,"cols":1,"data":[[0.5117539630327219]]},"learning_rate":0.1,"activation_function":{}},{"input_nodes":4,"hidden_nodes":6,"output_nodes":1,"weights_ih":{"rows":6,"cols":4,"data":[[0.30913766192549674,-0.685908107670401,0.49341718990080463,0.16817142303450489],[0.6630426940848706,-0.608009254984811,0.10076802937473991,0.6158917738325025],[-0.2928360916365967,0.08769158484688343,0.4136274112712547,0.8968693517005623],[-1.1032024520158141,0.13587675280982986,0.7980619451313951,-0.7359188531785636],[-0.34101344085758567,0.8098065321940795,0.002168823514791543,0.34879042031718577],[-0.15778957128525437,0.020837640001199212,-0.5229194604207776,-0.4118890124306328]]},"weights_ho":{"rows":1,"cols":6,"data":[[-0.21152997958285724,0.778614697644848,-0.7488577475566905,-0.45002683844919067,-0.7974000912682736,-1.0462495003985643]]},"bias_h":{"rows":6,"cols":1,"data":[[0.7346890794822915],[-0.051414822665624915],[0.08463025149494126],[-0.450159576822184],[-0.38025079847953047],[-1.2500881770838672]]},"bias_o":{"rows":1,"cols":1,"data":[[0.8283166053837328]]},"learning_rate":0.1,"activation_function":{}},{"input_nodes":4,"hidden_nodes":6,"output_nodes":1,"weights_ih":{"rows":6,"cols":4,"data":[[0.1513631795630065,-0.36422424123566655,0.7208676828052296,0.15067856444989447],[0.7712711552415108,-0.9292318557096703,-0.031244245215298214,0.38486964415933933],[-0.5286914620930057,0.19128205930849793,0.3010132669733966,0.537235801156214],[-0.9569465395022408,0.6404460529985747,0.573901224886593,-0.612367418384836],[-0.5648043063820216,0.9291739725336421,-0.17456508022882292,0.6333928788413613],[-0.5059403798744452,0.38782757290931047,-0.5154619234431358,-0.6078399548419177]]},"weights_ho":{"rows":1,"cols":6,"data":[[0.23269769877493043,0.7831820879990414,-0.7664201486099368,-0.32296114469341647,-0.9917014360243172,-0.952654690837033]]},"bias_h":{"rows":6,"cols":1,"data":[[0.19786561224865443],[0.5897463569275938],[0.38780563936429163],[-0.3168386700864871],[-0.5558218421364467],[-1.0347915815594335]]},"bias_o":{"rows":1,"cols":1,"data":[[0.5023702485287977]]},"learning_rate":0.1,"activation_function":{}},{"input_nodes":4,"hidden_nodes":6,"output_nodes":1,"weights_ih":{"rows":6,"cols":4,"data":[[0.21869169494611465,-0.8780072364730489,0.34580779231710124,0.17764187553348001],[1.1162157286290537,-0.8736154479347655,-0.220475824425033,0.585422516455581],[-0.24773310357048356,-0.018059715186933736,0.8116581076244138,0.875792316892647],[-1.111973619759811,0.31651089040637415,0.23759145576195764,-0.4991631588543621],[-0.7148674573285567,1.1093978956601058,-0.0028958180926779153,0.3922843637422169],[-0.19492874049836634,-0.002470023295260415,-0.309163263560317,-0.18906059061059355]]},"weights_ho":{"rows":1,"cols":6,"data":[[0.3090592892395898,0.5055253085023934,-0.7507657677029038,-0.7443638310419705,-0.6344342457080501,-0.9107835398350017]]},"bias_h":{"rows":6,"cols":1,"data":[[0.3627724963058977],[0.6176180483940867],[0.1366093856873024],[-0.9080901027476929],[-0.6180812870962981],[-0.8032997462442385]]},"bias_o":{"rows":1,"cols":1,"data":[[0.6779109757148589]]},"learning_rate":0.1,"activation_function":{}},{"input_nodes":4,"hidden_nodes":6,"output_nodes":1,"weights_ih":{"rows":6,"cols":4,"data":[[0.8334426185424133,-1.1422992363827444,1.2485593919796805,-0.14097804793304936],[0.3478162441209136,-0.6415283369730312,-0.2377985882443362,1.2243921305037193],[-0.5567957613349316,0.2589891214893786,0.1939344441962127,0.5704302188125074],[-1.3584500113168068,0.5685071254727746,0.7553493486246261,-0.8349189496461008],[-0.7734859460032343,1.1156293422824308,0.00531132189255501,0.8092605279090226],[-0.13605723279665902,0.09264737680598717,-0.10806856215497326,-0.578709282607418]]},"weights_ho":{"rows":1,"cols":6,"data":[[0.03677363965768081,0.5850858195826275,-0.6789797912330697,-0.36800096741189714,-0.6131844941409961,-1.3159620011500486]]},"bias_h":{"rows":6,"cols":1,"data":[[0.43961877046499026],[-0.022606103373926434],[0.40240710790098466],[-0.7371858765242412],[-0.39561617573792296],[-0.8145655491859413]]},"bias_o":{"rows":1,"cols":1,"data":[[0.5516218333011573]]},"learning_rate":0.1,"activation_function":{}},{"input_nodes":4,"hidden_nodes":6,"output_nodes":1,"weights_ih":{"rows":6,"cols":4,"data":[[0.5922820378791913,-0.751098332027581,0.3931676632496454,0.2626420360439524],[0.7112864572224777,-0.7868777557390287,0.05849949334185792,0.4257495090451593],[-0.27865302190183905,-0.1551766625646018,0.6392684910185841,1.0685881693709034],[-1.3041432596921358,0.1801184673833353,0.3975308884769295,-0.7449681064969488],[-0.4244619686446855,0.672982583677089,0.16073746985161955,0.5710162688925081],[-0.281042523522197,0.03156270305380293,-0.23131866286383992,-0.5775059113501584]]},"weights_ho":{"rows":1,"cols":6,"data":[[-0.21311774544281842,0.6662032219148971,-0.7387769992995743,-0.26443341917332763,-0.6234423999694018,-0.8332014361882681]]},"bias_h":{"rows":6,"cols":1,"data":[[0.36474201311141047],[-0.0525749669473254],[0.23016507897302713],[-0.4798215809655453],[-0.3993514495031892],[-1.0503424668894272]]},"bias_o":{"rows":1,"cols":1,"data":[[0.8148753853785246]]},"learning_rate":0.1,"activation_function":{}},{"input_nodes":4,"hidden_nodes":6,"output_nodes":1,"weights_ih":{"rows":6,"cols":4,"data":[[0.18537587033452593,-0.5352149521791887,0.4985159467105616,0.32842725498690195],[0.8832415695417027,-0.5334480709958558,0.031699485907193764,0.9258168608942238],[-0.518194395566928,0.36828904683080854,0.6053966104866613,0.49166839136565454],[-1.163663617580174,0.3709710102558591,0.24931919556737508,-0.198003183602324],[-0.3901095552351849,1.0445306294282584,-0.20247827255259987,0.4217186444771497],[-0.474219379519016,0.017292055661699945,-0.4134936184758244,-0.20176944437417488]]},"weights_ho":{"rows":1,"cols":6,"data":[[0.46071670618512656,0.56380642713695,-0.8853829021160805,-0.4352856875379346,-0.5892230625726816,-0.6913665440612655]]},"bias_h":{"rows":6,"cols":1,"data":[[0.3587797168283636],[0.5780586949566368],[0.5275251160462024],[-0.4095076779854911],[-0.7678352976696615],[-0.9570489676490977]]},"bias_o":{"rows":1,"cols":1,"data":[[0.4005259829050513]]},"learning_rate":0.1,"activation_function":{}},{"input_nodes":4,"hidden_nodes":6,"output_nodes":1,"weights_ih":{"rows":6,"cols":4,"data":[[0.4316486354129577,-0.28703013102096364,0.5856892680006345,0.22618029090111524],[0.868798196438351,-0.5706618711235383,-0.6099144480903392,1.0205409038069282],[-0.659373021630512,-0.07010561444898489,0.3132082498371709,0.6438892197613644],[-0.6087078983981435,0.4179469574735326,0.1629897646106407,-0.95286672072682],[-0.5133374406245682,1.0541736897047451,-0.16814176163526234,0.6929643898602027],[-0.28966507313559064,0.3711352607576834,-0.38340087077180507,-0.4156048182895061]]},"weights_ho":{"rows":1,"cols":6,"data":[[0.40150987418325124,0.3518497121201651,-0.6319520461088608,-0.12505891706296507,-0.8369331002908189,-1.2390499371119523]]},"bias_h":{"rows":6,"cols":1,"data":[[0.8732894389555093],[0.5451352509342532],[0.6844967963150986],[-0.6539055069064789],[-0.5272141953006501],[-1.2471504613284994]]},"bias_o":{"rows":1,"cols":1,"data":[[0.2705252732419263]]},"learning_rate":0.1,"activation_function":{}},{"input_nodes":4,"hidden_nodes":6,"output_nodes":1,"weights_ih":{"rows":6,"cols":4,"data":[[0.22482696772992633,-1.1743276300325634,0.3627591787620415,0.0785617341269106],[0.9217830563437934,-0.8222068754176071,0.12032455483346681,0.4516187401100899],[-0.4898148479665997,-0.1745230370135138,0.9236230999568428,0.8610971201950326],[-0.819138539397641,0.2482002620760939,0.4237922769786656,-0.1589336893263935],[-0.7276010826673192,1.3359463807324778,0.0764452289566345,0.33985572669184827],[-0.3484929620777848,0.10806898160112197,-0.11605116854224844,-0.14201389227180633]]},"weights_ho":{"rows":1,"cols":6,"data":[[0.12407984995740177,0.5751832810309775,-0.655212702008497,-0.8665188401483221,-0.2986354470054672,-0.7372677582835956]]},"bias_h":{"rows":6,"cols":1,"data":[[0.4088425434992399],[0.5760417427374989],[0.19015682107188026],[-0.8561345343787742],[-0.5224702941765248],[-0.6604086945732252]]},"bias_o":{"rows":1,"cols":1,"data":[[0.4993885429969923]]},"learning_rate":0.1,"activation_function":{}},{"input_nodes":4,"hidden_nodes":6,"output_nodes":1,"weights_ih":{"rows":6,"cols":4,"data":[[0.13585891056403743,-0.9153537799649127,0.4228058345057994,0.31290429547743825],[1.024515587753726,-0.7020899779102314,-0.22481738319078803,0.662000474924084],[-0.9939131188648771,0.14421484997151515,0.598144742360972,1.0114483031333756],[-0.9249770661238086,0.5440683119608117,0.41691787614260556,-0.38382367288365116],[-0.4164671229030922,1.1080498860334917,-0.014437234450576833,0.2931314146894189],[-0.15591463404979797,-0.026919725787327223,0.1781629713200653,-0.20689629355471895]]},"weights_ho":{"rows":1,"cols":6,"data":[[-0.11231462822247384,0.7269820380807177,-0.801176789080536,-0.46431985798554465,-0.33328867327829137,-0.5889871899505115]]},"bias_h":{"rows":6,"cols":1,"data":[[0.2746348190037576],[0.5356349007587717],[0.4010527821990356],[-0.814840197780001],[-0.42672267767394995],[-0.9260520308046154]]},"bias_o":{"rows":1,"cols":1,"data":[[0.5925335962898618]]},"learning_rate":0.1,"activation_function":{}},{"input_nodes":4,"hidden_nodes":6,"output_nodes":1,"weights_ih":{"rows":6,"cols":4,"data":[[0.17409429149460018,-0.9812236250212122,0.30822251143008983,0.15210214699636943],[1.1275176154970046,-0.9200049859029441,0.06428994616233702,0.6245749922980883],[-0.21828618442921013,0.1603516238941369,0.9210177273642401,0.8496294391603564],[-1.291093785935958,-0.12871569854239967,0.5488621149856749,-0.24511558251840684],[-0.8368550373109144,1.5037510988110119,0.12785210929571583,0.29043271549304583],[-0.5378573160887635,0.19604869711110942,0.020280607125073624,-0.07725522351081597]]},"weights_ho":{"rows":1,"cols":6,"data":[[0.3128165429691242,0.8612107950486824,-0.7701657197125318,-1.04179000219248,-0.6210952833518943,-0.9372799617479641]]},"bias_h":{"rows":6,"cols":1,"data":[[0.28415419102762496],[0.47493897348636943],[0.019389510217284994],[-0.9274604901973582],[-0.6660402817992088],[-0.6482934034401846]]},"bias_o":{"rows":1,"cols":1,"data":[[0.5127790278239519]]},"learning_rate":0.1,"activation_function":{}}]