{
    "input_nodes": 4,
    "hidden_nodes": 6,
    "output_nodes": 1,
    "weights_ih": {
        "rows": 6,
        "cols": 4,
        "data": [
            [
                -0.25510560050268427,
                0.4554156456879633,
                -0.23214347758061535,
                -0.7842583431909198
            ],
            [
                -0.3129054812183046,
                -0.20192555149785363,
                -0.7966832611134207,
                0.19890609659467148
            ],
            [
                -0.8344241454402976,
                0.4282144396852367,
                0.43943183054051665,
                -0.40818981286852246
            ],
            [
                0.7436982242756498,
                0.007831759772751343,
                -0.06905056730614086,
                -0.6757037683782161
            ],
            [
                1.0452903286398685,
                -0.38287304751313955,
                -0.31822039747208936,
                0.23321707930471783
            ],
            [
                0.11623776793634451,
                0.9690333650433197,
                -0.7576132079736185,
                0.8326840730842092
            ]
        ]
    },
    "weights_ho": {
        "rows": 1,
        "cols": 6,
        "data": [
            [
                -0.4611806679933502,
                0.6786060053858248,
                -0.9854994802443876,
                0.39472637385613446,
                0.21257293893372953,
                -0.1370833860492653
            ]
        ]
    },
    "bias_h": {
        "rows": 6,
        "cols": 1,
        "data": [
            [
                -0.3606617371531483
            ],
            [
                -0.8705940114946872
            ],
            [
                -0.6315074422118062
            ],
            [
                -0.3120312366449903
            ],
            [
                -0.5464101190032246
            ],
            [
                0.026140050799480077
            ]
        ]
    },
    "bias_o": {
        "rows": 1,
        "cols": 1,
        "data": [
            [
                0.15407347875676827
            ]
        ]
    },
    "learning_rate": 0.1,
    "activation_function": {}
}

[{"input_nodes":4,"hidden_nodes":6,"output_nodes":1,"weights_ih":{"rows":6,"cols":4,"data":[[0.5653310201842467,-0.75741558459263,-0.2424999791217861,-0.07130362029204407],[0.44494034957725814,-0.6054229001125411,0.7828283212053113,0.7495522530330381],[0.5808684034415481,0.9127984791789527,-0.31228258452915125,-0.5990857293014196],[0.025768346336310533,-0.9508820460774026,-0.4101977705047508,0.25521176230844556],[-0.5275292267951721,-0.21860940786787975,-0.867568037373105,-0.2605599278304864],[-0.7653533344123322,0.08598553835785094,-0.2790166416464801,-0.42205916188441983]]},"weights_ho":{"rows":1,"cols":6,"data":[[0.02488401986580313,0.6045434164391816,-0.7489365103993397,-0.6132839180503646,-0.04519864035599741,-0.32648260556264663]]},"bias_h":{"rows":6,"cols":1,"data":[[0.09699144578840335],[-0.980179781395782],[0.618560419510293],[0.5075863373716789],[0.3042881932148329],[-0.4119387482126269]]},"bias_o":{"rows":1,"cols":1,"data":[[-0.8538814450403842]]},"learning_rate":0.1,"activation_function":{}},{"input_nodes":4,"hidden_nodes":6,"output_nodes":1,"weights_ih":{"rows":6,"cols":4,"data":[[0.8168099943974961,-0.7983270312404654,-0.6634581664881496,-0.16690128360595904],[0.6832537216022874,0.6186366054621845,0.44278695807546753,0.19902843912701113],[0.44031811899200857,0.187317128395872,-0.26052058865277494,0.24850314060776899],[-0.544693052337354,-0.5181005219937372,-0.6907555579665514,0.44887304642462067],[-0.21794499149022548,0.3519421442634526,0.41141740840870733,0.8119062726006885],[0.8483916693078936,-0.4023689598168484,0.022671735921956315,0.48867425649027607]]},"weights_ho":{"rows":1,"cols":6,"data":[[0.8712580642390317,-0.9490620420872293,0.29219191633449015,-0.05196157768624908,0.1675056109743664,0.5409222203803324]]},"bias_h":{"rows":6,"cols":1,"data":[[0.3813916442995584],[-0.8482593696298006],[0.544554562605322],[-0.4116439500851107],[0.571306004972492],[0.44978519140663104]]},"bias_o":{"rows":1,"cols":1,"data":[[-0.6600542092407964]]},"learning_rate":0.1,"activation_function":{}},{"input_nodes":4,"hidden_nodes":6,"output_nodes":1,"weights_ih":{"rows":6,"cols":4,"data":[[-0.796526715474832,0.5074980844413333,0.26886454031821694,-0.038609004903535506],[0.21096491592047426,0.702779603236203,0.3142292729636321,0.7078523902767994],[-0.44087561586218604,0.4320092030691582,-0.9102217371873884,-0.97624792829061],[0.37213844716730715,-0.03225046152210352,-0.556372989653511,-0.5213030181191872],[0.8588398770582484,0.6860147282981581,-0.985344097473446,0.23310261161973633],[-0.7757526146836341,0.7487410313689629,-0.8185752434720136,0.4907595434092281]]},"weights_ho":{"rows":1,"cols":6,"data":[[-0.5731572848252147,-0.06823626007935578,0.5340254772474032,0.8900245677324361,0.7851257677511739,-0.42802924117983665]]},"bias_h":{"rows":6,"cols":1,"data":[[0.2627731843200553],[0.24141509791640953],[-0.30292012075028824],[0.6767600203244512],[0.3630332268428975],[-0.7397280017266431]]},"bias_o":{"rows":1,"cols":1,"data":[[-0.6952824219701684]]},"learning_rate":0.1,"activation_function":{}},{"input_nodes":4,"hidden_nodes":6,"output_nodes":1,"weights_ih":{"rows":6,"cols":4,"data":[[-0.803006070008082,0.43118127868046874,0.21574259944964835,-0.030772824769642083],[0.30942238766235647,0.6491842548793061,0.22210270970783763,0.7387152706508214],[-0.443106261639755,0.47966115594927916,-0.9494755460334756,-1.014129292785937],[0.4129599686301708,0.03893320866134041,-0.5355143366554983,-0.569127182694323],[0.8279919533810483,0.6340142693365582,-1.0699807304165674,0.23348605610954634],[-0.8528487340335583,0.8033270273192042,-0.9173841806011989,0.5619077778740593]]},"weights_ho":{"rows":1,"cols":6,"data":[[-0.5687253111676365,-0.08939266566303852,0.5242778240958264,0.911446344730717,0.700357230846745,-0.5198183893292767]]},"bias_h":{"rows":6,"cols":1,"data":[[0.17884412346223066],[0.31915480153712683],[-0.20826421820469912],[0.6906850630358783],[0.31995770215078057],[-0.7704808761094553]]},"bias_o":{"rows":1,"cols":1,"data":[[-0.6805491173457734]]},"learning_rate":0.1,"activation_function":{}},{"input_nodes":4,"hidden_nodes":6,"output_nodes":1,"weights_ih":{"rows":6,"cols":4,"data":[[-0.8818385146493767,0.5089129717337273,0.30095035063895215,-0.023217046362002565],[0.30600727587209126,0.6743438058061046,0.13299164944661365,0.7164057764649922],[-0.4290512889584813,0.4140728160350966,-1.0470391069466645,-1.0693212710557103],[0.4352391654795325,0.13547584570495147,-0.612156503477563,-0.5813807665133001],[0.884334127206093,0.5394377265197836,-1.105341742716234,0.23528983833871392],[-0.8443076092368014,0.8464333064726719,-0.8309004973428344,0.4813530755489406]]},"weights_ho":{"rows":1,"cols":6,"data":[[-0.5626077436250578,-0.0675970292931361,0.5139281648885153,0.9312911269309022,0.6768571390224628,-0.559462145047419]]},"bias_h":{"rows":6,"cols":1,"data":[[0.20423421208972106],[0.35862169473659755],[-0.19103619471076452],[0.658141126663372],[0.32398917266463556],[-0.7100890698469435]]},"bias_o":{"rows":1,"cols":1,"data":[[-0.648311450979068]]},"learning_rate":0.1,"activation_function":{}},{"input_nodes":4,"hidden_nodes":6,"output_nodes":1,"weights_ih":{"rows":6,"cols":4,"data":[[0.8734687390726203,-0.7514565279956926,-0.8972874324506318,0.9617686999778606],[-0.9917602141221479,0.3192049043059748,-0.027828755698780155,-0.18405357568530664],[-0.3658374294997031,-0.680923094795012,-0.08209176799400436,-0.6904260188614747],[0.013692237961587361,0.5166227113195825,-0.9000500493930611,-0.2542110336605746],[-0.2896209535380194,-0.26967969074498477,-0.6580279624004396,0.3841033006658182],[-0.39061960889022995,-0.2846065440829167,-0.7603760408831507,0.8091009809191267]]},"weights_ho":{"rows":1,"cols":6,"data":[[0.6013814113647569,-0.7078352920859745,0.766060891392007,0.23440108994544456,-0.062133565300522636,-0.7459849157909167]]},"bias_h":{"rows":6,"cols":1,"data":[[0.8112283619844429],[-0.8771576799219566],[0.1754917487525337],[0.25523600720820827],[-0.07812948281367582],[-0.98022765348183]]},"bias_o":{"rows":1,"cols":1,"data":[[0.7668869216826266]]},"learning_rate":0.1,"activation_function":{}},{"input_nodes":4,"hidden_nodes":6,"output_nodes":1,"weights_ih":{"rows":6,"cols":4,"data":[[-0.7836156638447253,-0.9861702613459327,1.0404624744452005,0.7976929268290156],[0.877376339111114,0.36571956710364895,-0.010409474237409844,0.6843683819567737],[0.41848007595272957,0.14426560522089604,-0.11945585053214562,0.5835469707850774],[0.6188890797148648,-0.19100531399393192,-0.9494013673879467,1.0343183556776963],[0.8838880600025928,-1.0716780646457944,0.08939353424534657,0.5563425770673555],[-0.21813801961244664,-0.5075503216902161,1.0710755346228893,-0.6904841033657466]]},"weights_ho":{"rows":1,"cols":6,"data":[[-0.4064673391901732,1.0206826939093598,0.3463891317359721,0.8718283334707089,-0.6515331774327533,0.762001682767663]]},"bias_h":{"rows":6,"cols":1,"data":[[0.5819977541694039],[-0.34166667475899554],[0.8526377571142133],[0.1902590700620559],[0.3860996545992077],[-0.6092984335659581]]},"bias_o":{"rows":1,"cols":1,"data":[[0.8438132495486905]]},"learning_rate":0.1,"activation_function":{}},{"input_nodes":4,"hidden_nodes":6,"output_nodes":1,"weights_ih":{"rows":6,"cols":4,"data":[[-1.0712192323868956,0.5858483101919111,0.1658046073090955,0.02801624475453713],[0.2390738228209707,0.576640087877553,0.08521908551398516,0.7626615309952243],[-0.4736617091012238,0.43988281213651764,-0.9904182953258859,-1.0322568427375516],[0.5000858725188244,0.09572453599721525,-0.7374037548075968,-0.628027494630974],[0.8552226281806703,0.5078706251313223,-1.0459963951807218,0.10281517225439576],[-0.9689110455064217,0.898313236120701,-0.7615219074870828,0.321756354446171]]},"weights_ho":{"rows":1,"cols":6,"data":[[-0.6334922515954199,-0.18104317009502313,0.5725138770177748,0.7039257407362074,0.7818426193553408,-0.5243444750719831]]},"bias_h":{"rows":6,"cols":1,"data":[[0.267564171435629],[0.18540995789612835],[-0.10819649737872125],[0.7426482586665302],[0.2980404122772532],[-0.522171183327976]]},"bias_o":{"rows":1,"cols":1,"data":[[-0.5967639530422093]]},"learning_rate":0.1,"activation_function":{}},{"input_nodes":4,"hidden_nodes":6,"output_nodes":1,"weights_ih":{"rows":6,"cols":4,"data":[[-0.8363488542178876,0.8207569114429667,0.39963137636786905,-0.16529327744518343],[0.2900230862675595,0.44349436456667396,0.03850777111295099,0.5427272484859281],[-0.5094415209254272,0.4624084860922403,-0.8809618627312799,-0.8887920782644604],[0.5668312999654387,0.2172550330583672,-0.6777137734112872,-0.7718835575128775],[0.8200112782005009,0.5571873850928186,-1.2304897946030362,0.3431253487756803],[-0.9326589225141876,0.7865526421717126,-1.0720317229999945,0.553847478953325]]},"weights_ho":{"rows":1,"cols":6,"data":[[-0.7582161075023713,-0.03675322007283176,0.4123939762924492,0.8413620400141965,0.8338637871478294,-0.5335067853721183]]},"bias_h":{"rows":6,"cols":1,"data":[[0.4359951245967546],[0.3608971147155084],[-0.17996626079118883],[0.6852248373162442],[0.40571354921751224],[-0.8802613126202712]]},"bias_o":{"rows":1,"cols":1,"data":[[-0.5511289918794582]]},"learning_rate":0.1,"activation_function":{}},{"input_nodes":4,"hidden_nodes":6,"output_nodes":1,"weights_ih":{"rows":6,"cols":4,"data":[[-0.882107122562584,0.7398526428758613,0.39167617117531217,-0.19807703125209425],[0.2695428219416518,0.3738462334249901,-0.04358054302185477,0.5763883507576941],[-0.603677446696397,0.45234059362699375,-0.8296029574980798,-0.922823803237288],[0.654659615147007,0.23971570686323457,-0.7072822814772932,-0.7265791627515956],[0.9045241369591017,0.5077864801466346,-1.2065144994383363,0.3500202322990359],[-0.9976104414010571,0.7399671968467136,-1.0204691572317,0.49203130321459165]]},"weights_ho":{"rows":1,"cols":6,"data":[[-0.8020604910268477,-0.0526320338052325,0.4948247664423042,0.7956634780119114,0.9189695517233276,-0.5609480553948498]]},"bias_h":{"rows":6,"cols":1,"data":[[0.5203991659105184],[0.40528522846138737],[-0.1253126308725168],[0.7073242371183646],[0.40327693116788915],[-0.8010459979552245]]},"bias_o":{"rows":1,"cols":1,"data":[[-0.577744170753675]]},"learning_rate":0.1,"activation_function":{}},{"input_nodes":4,"hidden_nodes":6,"output_nodes":1,"weights_ih":{"rows":6,"cols":4,"data":[[-0.8985389212411172,0.7329057252732276,0.3036350586782609,-0.23581426874347775],[0.29840680388943114,0.4245351000079367,0.16589254806790432,0.4527479334860691],[-0.5429533107305087,0.3812288513888368,-0.8385424647604519,-0.7831287026449727],[0.5276177025481358,0.324424766942662,-0.7307510904754095,-0.7968294891256488],[0.8138525488184217,0.6226899772519239,-1.224140323412416,0.26330084403773935],[-0.870042372796087,0.7389522151263346,-1.0857369251097637,0.5334478937633421]]},"weights_ho":{"rows":1,"cols":6,"data":[[-0.7621975721532226,0.10521464444596772,0.3757303407652397,0.7863169822388326,0.8078360012569668,-0.6277228562011443]]},"bias_h":{"rows":6,"cols":1,"data":[[0.3761317693106037],[0.26776939316458315],[-0.018720451007496447],[0.7622596718131404],[0.3834278728570828],[-0.7017643786492326]]},"bias_o":{"rows":1,"cols":1,"data":[[-0.5454120140397144]]},"learning_rate":0.1,"activation_function":{}},{"input_nodes":4,"hidden_nodes":6,"output_nodes":1,"weights_ih":{"rows":6,"cols":4,"data":[[-0.9870323935530784,0.8639439426739387,0.4136870022688377,-0.15464686543175885],[0.3746193689928161,0.6153811380838716,0.10026294248617029,0.6411564330871353],[-0.4052089977613722,0.4236280523104649,-0.921522832512015,-0.9383304050299264],[0.6513777185329752,0.2750605671949355,-0.7153653072131178,-0.7127503038083546],[0.7874370942368729,0.6029735936334963,-1.0997755575053956,0.2927023272850354],[-0.7115958988534641,0.917623285723118,-1.0663644231685487,0.4990274302814026]]},"weights_ho":{"rows":1,"cols":6,"data":[[-0.8878668208939056,0.06256404456699782,0.32282470839366073,0.8459192714626019,0.8846207934056198,-0.5823468959056444]]},"bias_h":{"rows":6,"cols":1,"data":[[0.482756598325472],[0.21510599849434425],[-0.14958429076994686],[0.7611126238420549],[0.5203543705086805],[-0.8734203277432734]]},"bias_o":{"rows":1,"cols":1,"data":[[-0.4495420464634491]]},"learning_rate":0.1,"activation_function":{}},{"input_nodes":4,"hidden_nodes":6,"output_nodes":1,"weights_ih":{"rows":6,"cols":4,"data":[[-0.830394324719504,0.4222631363494836,0.4120555480471643,0.047771210285360896],[0.3614026395340336,0.618126527884772,0.2539452075423213,0.6076803556622051],[-0.5607213763695795,0.572346209824474,-1.1674730799300022,-1.295412329904513],[0.6400251146416038,0.05619754453151721,-0.6865471706674507,-0.4851154566111968],[0.7826462584303266,0.4703478024223432,-1.3336262375021883,0.4128886665025547],[-0.9895464221463781,0.9060968983805929,-0.8559704462271356,0.38528818151283206]]},"weights_ho":{"rows":1,"cols":6,"data":[[-0.6381428849528881,0.004006530849809231,0.4413882349795337,0.8896104346319477,0.8439027143984008,-0.8483494333485799]]},"bias_h":{"rows":6,"cols":1,"data":[[0.34738484831018124],[0.1354754935138351],[-0.4668714693481578],[0.47576035307099007],[0.5136561730318343],[-0.813108525300773]]},"bias_o":{"rows":1,"cols":1,"data":[[-0.5888927874258443]]},"learning_rate":0.1,"activation_function":{}},{"input_nodes":4,"hidden_nodes":6,"output_nodes":1,"weights_ih":{"rows":6,"cols":4,"data":[[-0.9663729943054067,0.6442608476031494,0.6626312488478605,-0.3200200924265245],[0.2297258457081533,0.6799677139765016,-0.012454933623377643,0.748035183276273],[-0.5903438038177192,0.44841503442840114,-1.285539564813995,-1.2586122452512574],[0.6192558474838946,0.08038885405149399,-0.541812138679175,-0.49960708230841994],[0.9349791534805918,0.44623779900877536,-1.1098371449989146,0.20438020672236584],[-1.0797317089574305,0.8589440966973794,-0.7473027052893608,0.7159056036685754]]},"weights_ho":{"rows":1,"cols":6,"data":[[-0.8423873729715177,0.015331791811149874,0.44844543499790884,0.8706627075288862,1.03537086435955,-0.5938882688287414]]},"bias_h":{"rows":6,"cols":1,"data":[[0.3423434372729651],[0.4864898676959901],[-0.12745289293317721],[0.5025196545532663],[0.5114534656027422],[-0.7477502318918233]]},"bias_o":{"rows":1,"cols":1,"data":[[-0.6777676064673084]]},"learning_rate":0.1,"activation_function":{}},{"input_nodes":4,"hidden_nodes":6,"output_nodes":1,"weights_ih":{"rows":6,"cols":4,"data":[[-0.9928109074452214,0.7142632731552723,0.7620212510283717,-0.2951342290200374],[0.18579775463343945,0.7562999151614003,-0.07931488508086064,0.7650653103433451],[-0.5321936652345804,0.4245664590152208,-1.3388065730379282,-1.3395784584758381],[0.642440456168281,0.05357733467680871,-0.5367811258989703,-0.489013125709995],[1.032268505695463,0.4834394259763631,-1.1306719408077759,0.13788270195600807],[-1.0417108466300549,0.7631684839400621,-0.6625628113852051,0.7228044187412109]]},"weights_ho":{"rows":1,"cols":6,"data":[[-0.7623640112641157,0.04632972711718061,0.5124479111633402,0.7754876770833898,1.0847382658710365,-0.5259302466630636]]},"bias_h":{"rows":6,"cols":1,"data":[[0.24544763875276315],[0.40528843615228033],[-0.07912299738999962],[0.51532460969894],[0.6041629266668584],[-0.7011046980155763]]},"bias_o":{"rows":1,"cols":1,"data":[[-0.650228961734763]]},"learning_rate":0.1,"activation_function":{}},{"input_nodes":4,"hidden_nodes":6,"output_nodes":1,"weights_ih":{"rows":6,"cols":4,"data":[[-0.9179728600300959,0.9982166853651779,0.35587092338696513,0.08954757959305869],[0.2965025542410081,0.37572271197556545,0.09689085759197007,0.7674484528239572],[-0.39292933053459544,0.45115324128679124,-0.9376581522375379,-1.0471623329848183],[0.7812526107290716,-0.037685854015114276,-0.5163184742561348,-0.5772874601189386],[0.7976402663355483,0.37023971972394965,-1.1196810549509635,0.7149373508919034],[-1.2216233609789955,0.7438102060896379,-0.7947674217939397,0.3357729616916942]]},"weights_ho":{"rows":1,"cols":6,"data":[[-0.9702624608233024,0.11260006803485921,0.4226030684275296,0.7281708995607878,0.9029623284923746,-0.683247884292984]]},"bias_h":{"rows":6,"cols":1,"data":[[0.3931950799980417],[0.4873708245018198],[-0.20189992498444104],[0.8528589751366727],[0.4341015236492546],[-0.7072636059098971]]},"bias_o":{"rows":1,"cols":1,"data":[[-0.5412416545617936]]},"learning_rate":0.1,"activation_function":{}},{"input_nodes":4,"hidden_nodes":6,"output_nodes":1,"weights_ih":{"rows":6,"cols":4,"data":[[-1.066052498773234,1.063878472636175,0.4533430731912029,-0.19030460066535182],[0.14311535430766703,0.3301029608530083,-0.19855654860323962,0.7911091242246644],[-0.7469569885445375,0.3385700125549801,-0.5102333209720793,-0.7009006229643623],[0.6639285351431725,0.19991238944677298,-0.5062744849887868,-0.5276657828276154],[0.8467278762470153,0.5348756318848676,-1.153750214026996,0.4189281523036814],[-0.8876263345317971,0.7626295792561408,-1.1821134699597748,0.41042730169513847]]},"weights_ho":{"rows":1,"cols":6,"data":[[-0.7818569483659341,-0.0933270390367979,0.3126379760806248,0.8848739789935264,0.6023230311881734,-0.8679692052195043]]},"bias_h":{"rows":6,"cols":1,"data":[[0.19445642470439098],[0.09860584013671653],[-0.0644039588025547],[0.794127874183038],[0.36286396404640064],[-0.6588771280221781]]},"bias_o":{"rows":1,"cols":1,"data":[[-0.5432914905711984]]},"learning_rate":0.1,"activation_function":{}}]
[{"input_nodes":4,"hidden_nodes":6,"output_nodes":1,"weights_ih":{"rows":6,"cols":4,"data":[[0.5523420153178582,0.8671288840477376,0.9056434664685948,0.3210090625897888],[0.3920231533451046,-0.1424323165048924,-0.3457041033174528,-0.08940847949332564],[-0.4073589413838492,-0.504000945246543,0.3895529937555995,-0.46888829109955443],[-0.9868468319340331,0.5758637690441359,-0.20278006253443692,-0.5395958558901226],[0.20589830351503702,-0.379625884128445,-0.4127851239447542,-0.7894830078137656],[-0.2564824735831561,-0.9334707553093755,-0.8828455665159334,-0.6791751808041879]]},"weights_ho":{"rows":1,"cols":6,"data":[[-0.14197524453251575,0.16383029635864,-0.012599775944528435,0.7103913440728118,0.37909644336613413,-0.8551765848559507]]},"bias_h":{"rows":6,"cols":1,"data":[[0.23736016833988827],[-0.7697108662789802],[0.6523551620652006],[0.1454179652872143],[0.760554894654242],[-0.1889811257144529]]},"bias_o":{"rows":1,"cols":1,"data":[[-0.5624038394548383]]},"learning_rate":0.1,"activation_function":{}},{"input_nodes":4,"hidden_nodes":6,"output_nodes":1,"weights_ih":{"rows":6,"cols":4,"data":[[0.5748039012410463,-0.7006636676317117,0.5452834269510602,0.02179815697980858],[0.6084765507363646,-0.8045653945544256,-0.2833075142400085,0.4286395228319525],[-0.3490834868249368,0.30299553755546227,0.5967479149614886,0.8036919455010799],[-1.0129955398230466,0.442820749877217,0.3423235239365404,-0.8246930011011214],[-0.21831153836410622,0.8029104974973759,-0.3097770173035756,0.5265156987517468],[-0.054307167294164,0.16653876097337827,-0.5249167577241917,-0.5027166638667658]]},"weights_ho":{"rows":1,"cols":6,"data":[[0.33411372219664615,0.5447905131837429,-0.5571811438474866,-0.2670936340590522,-0.7638390237742401,-1.0693269406333603]]},"bias_h":{"rows":6,"cols":1,"data":[[0.4982119014149133],[0.2637438618083366],[0.7563540381743512],[-0.6622923315438094],[-0.49211374199997704],[-1.0020508619603314]]},"bias_o":{"rows":1,"cols":1,"data":[[0.46194999808843734]]},"learning_rate":0.1,"activation_function":{}},{"input_nodes":4,"hidden_nodes":6,"output_nodes":1,"weights_ih":{"rows":6,"cols":4,"data":[[0.013675306404789311,-0.41700808346155976,0.27527327719484385,0.8061916337186839],[-0.809211347086855,0.6658877598771572,-0.9493925435376501,1.0024248051007307],[0.34486037980142686,-0.4044256890765891,0.9591233002240873,1.0081011369741542],[-0.7879685999159823,-0.3925534682600248,0.6046262882882671,-0.15820979277930444],[-0.45508010310086056,0.44375968674454414,0.82730644222432,-0.11752336297599836],[-0.38514375185062866,0.17167254515559283,-0.033207047082669985,0.9561148868838579]]},"weights_ho":{"rows":1,"cols":6,"data":[[-0.034282587837698345,0.15673208519560528,0.5518265591837964,0.527427559454085,0.12172683205151691,0.8802051307043414]]},"bias_h":{"rows":6,"cols":1,"data":[[0.3148172922004992],[-0.3383144270852981],[-0.7211782707449935],[-0.14449884234210034],[-0.7272207260074118],[0.7588277855086065]]},"bias_o":{"rows":1,"cols":1,"data":[[0.659910704707432]]},"learning_rate":0.1,"activation_function":{}},{"input_nodes":4,"hidden_nodes":6,"output_nodes":1,"weights_ih":{"rows":6,"cols":4,"data":[[0.5536465081429023,-0.6154268532158937,0.5807932095626415,0.14470499596013844],[0.7097666198328387,-0.8139247243680008,-0.2074438346427007,0.5227037247500539],[-0.4584878660157333,0.1809571321190403,0.550879381325085,0.7344384904164414],[-0.9375866819240798,0.30045542329857455,0.3630492432209041,-0.7701294059785284],[-0.3247045317826738,0.824633454199668,-0.1500870455815746,0.5042280632978786],[-0.12582377448102905,0.15178062801897535,-0.5206940092052003,-0.49114381184193445]]},"weights_ho":{"rows":1,"cols":6,"data":[[0.23374675813772425,0.5531651383463214,-0.5284226119924166,-0.2923130581359973,-0.7055888646765182,-1.1250659682708266]]},"bias_h":{"rows":6,"cols":1,"data":[[0.40647216288504184],[0.28815842865988084],[0.6153860319085346],[-0.4723858863114243],[-0.40485865764340573],[-1.102313561968696]]},"bias_o":{"rows":1,"cols":1,"data":[[0.4763853333919349]]},"learning_rate":0.1,"activation_function":{}},{"input_nodes":4,"hidden_nodes":6,"output_nodes":1,"weights_ih":{"rows":6,"cols":4,"data":[[0.3008349901890082,0.5321631538419386,0.48015654551789233,-0.0866296551707431],[-0.811178388877471,0.19687789364147545,-0.022170587520625853,-0.819725789005598],[-0.21957609525416208,0.17266950581076584,0.8385438459551107,-0.20455999905960737],[0.35107026590282636,0.4481560858446756,0.2319781730893442,0.1488342216223778],[1.0470258450348342,0.12681932883860525,1.0403373096193462,0.4420924116779229],[-0.07684115415486333,-1.0235427037577973,-0.7278724515749843,0.20359124595546316]]},"weights_ho":{"rows":1,"cols":6,"data":[[-0.47502371159861156,0.5300676740585932,0.4379234564309412,0.35680647921194125,0.5158168479135039,-0.7900772587005234]]},"bias_h":{"rows":6,"cols":1,"data":[[0.326154525967568],[0.19360381983199587],[-0.09065039199922478],[0.2320205393330154],[0.027459221594058975],[0.6852038602472111]]},"bias_o":{"rows":1,"cols":1,"data":[[0.6862135631185766]]},"learning_rate":0.1,"activation_function":{}},{"input_nodes":4,"hidden_nodes":6,"output_nodes":1,"weights_ih":{"rows":6,"cols":4,"data":[[0.5173132740319756,-0.5687338452314538,0.6289920555304878,0.3028739058889963],[0.7690186584537884,-0.8252842827249038,-0.1781155687278952,0.5558085413605103],[-0.5344258738437683,0.29421938754409016,0.5176916618429213,0.8511993347748048],[-0.805344708780585,0.24753772096217508,0.4760337365144054,-0.7509573057562337],[-0.3824799852083245,0.7822948589939522,-0.2604888357793091,0.5035411544431178],[-0.17452335867146096,0.11932842102277291,-0.46771230963482424,-0.5073182775752837]]},"weights_ho":{"rows":1,"cols":6,"data":[[0.12323051492242115,0.5608027811866074,-0.5747192823449403,-0.33761996103327363,-0.6684319971873764,-1.2424509034849691]]},"bias_h":{"rows":6,"cols":1,"data":[[0.4632317752309227],[0.2554492531107123],[0.6224485946676552],[-0.5655536615997352],[-0.4023056856676104],[-1.095551533283344]]},"bias_o":{"rows":1,"cols":1,"data":[[0.5783950355837292]]},"learning_rate":0.1,"activation_function":{}},{"input_nodes":4,"hidden_nodes":6,"output_nodes":1,"weights_ih":{"rows":6,"cols":4,"data":[[0.47555907217117943,-0.6021663243618265,0.6986350980534806,0.25149628290760573],[0.8055089309311759,-0.7429233586372886,-0.1375659233335193,0.5439504820937604],[-0.3482209329179134,0.14346910710028768,0.6779496612962695,0.7673033739345047],[-0.9892319045338921,0.37613095355066206,0.4609043782428438,-0.6915063940086883],[-0.2633714609846201,0.7304686590881875,-0.11204874361127054,0.48418858311632157],[-0.2251632117896935,0.05911544599061974,-0.573583469838276,-0.5879173845802903]]},"weights_ho":{"rows":1,"cols":6,"data":[[0.24699212943218996,0.38806286480313346,-0.6050295514727229,-0.1533795911494381,-0.6237567163715556,-0.9101786249105275]]},"bias_h":{"rows":6,"cols":1,"data":[[0.6138783310538185],[0.12119669392326682],[0.5913020600429939],[-0.4683090328856777],[-0.2691012890705506],[-1.0532529890754634]]},"bias_o":{"rows":1,"cols":1,"data":[[0.521115168190296]]},"learning_rate":0.1,"activation_function":{}},{"input_nodes":4,"hidden_nodes":6,"output_nodes":1,"weights_ih":{"rows":6,"cols":4,"data":[[0.38439526899036147,-0.47674289055008956,0.7045001981872793,0.4417025175790105],[0.8197795486229502,-0.9366559928992757,-0.08338112490082118,0.6712281335212178],[-0.4589376218692207,0.3667086363124153,0.46571817068268484,0.8314148828086839],[-0.8178215494461539,0.36880044403409973,0.5359510276989853,-0.8841107098725404],[-0.2458184607913713,0.8593337493193595,-0.22976782625055048,0.41802133653828555],[-0.20182350702663765,0.061424796537304815,-0.34218656837194195,-0.5064420547685566]]},"weights_ho":{"rows":1,"cols":6,"data":[[0.26532619417140313,0.5393253629022127,-0.4418384426204685,-0.22316795533065203,-0.7951222009841852,-1.33181000160893]]},"bias_h":{"rows":6,"cols":1,"data":[[0.4360528360332803],[0.11709256956377362],[0.5268079014898159],[-0.503313569921646],[-0.41438690678531004],[-1.0277940127136307]]},"bias_o":{"rows":1,"cols":1,"data":[[0.5347432951372093]]},"learning_rate":0.1,"activation_function":{}},{"input_nodes":4,"hidden_nodes":6,"output_nodes":1,"weights_ih":{"rows":6,"cols":4,"data":[[0.6597707305997101,-0.48629943378719154,0.6734755133969859,0.18401481097580769],[0.6889158462527338,-0.6238369873010404,-0.16461625442445765,0.5222456246007221],[-0.33529381395354824,0.3939017533532573,0.519239810406732,1.0234303163415954],[-0.8893964351518794,0.2736181540001079,0.3575654727881859,-0.9882767269891707],[-0.529076199403485,0.8443805378460857,-0.17196476055651255,0.43242119562445164],[-0.09786106961748364,0.08380854685761285,-0.2791308580472572,-0.4258110636786009]]},"weights_ho":{"rows":1,"cols":6,"data":[[0.2869973571504225,0.6123083956503986,-0.5539767323127706,-0.20149656905247232,-0.7174371375385652,-0.9767658532915323]]},"bias_h":{"rows":6,"cols":1,"data":[[0.23946756160742344],[-0.02929145779639336],[0.6074540678412577],[-0.49653817619671126],[-0.4301210188455754],[-1.2043816671735577]]},"bias_o":{"rows":1,"cols":1,"data":[[0.4082445641189807]]},"learning_rate":0.1,"activation_function":{}},{"input_nodes":4,"hidden_nodes":6,"output_nodes":1,"weights_ih":{"rows":6,"cols":4,"data":[[0.27785724654260296,-0.4528466380588546,0.5499745498153538,0.042593846524132686],[0.6905947175535265,-0.7192933015807056,-0.16401387254432565,0.4180266313686719],[-0.2476067729607338,0.18397725945573015,0.5510495384991424,0.7221355371126751],[-0.8705760416371597,0.49434400270366646,0.35227696718238666,-0.5935067599983584],[-0.39195754138565725,0.9827719931952432,-0.22342557065279645,0.5895533645739048],[-0.31217114554778197,0.07170418010846905,-0.3935432841976878,-0.4276492643069708]]},"weights_ho":{"rows":1,"cols":6,"data":[[0.1939445341155596,0.7100349734987809,-0.4362453851347676,-0.35969245820311246,-0.6412862740677355,-0.9571255390980432]]},"bias_h":{"rows":6,"cols":1,"data":[[0.26223536706772593],[0.3326529018312393],[0.5368237980438754],[-0.5143301910324689],[-0.585862647875446],[-0.9162277279143128]]},"bias_o":{"rows":1,"cols":1,"data":[[0.33977719299951237]]},"learning_rate":0.1,"activation_function":{}},{"input_nodes":4,"hidden_nodes":6,"output_nodes":1,"weights_ih":{"rows":6,"cols":4,"data":[[0.5015219459357536,-0.5857870690633918,0.7374079954242686,0.17439098950743842],[0.9264578946410124,-0.8445056883775081,-0.12997858530140036,0.5753803362796067],[-0.5759127727359873,0.483353898859134,0.35493976572201164,0.8460875861202626],[-0.9719490302873037,0.2720196190680574,0.4911669736156501,-0.8669030950278206],[-0.4502863192321904,0.6933773969924862,-0.11126872683494306,0.4760648853199062],[-0.06528530179821394,0.09397010361688592,-0.43363603917395205,-0.4890909029436151]]},"weights_ho":{"rows":1,"cols":6,"data":[[0.47409862448117823,0.6270210237777838,-0.4592078727769874,-0.27781154586740847,-0.6900404009330899,-1.1574102534481814]]},"bias_h":{"rows":6,"cols":1,"data":[[0.3678166655078894],[0.17755549282756466],[0.896567921720658],[-0.6993435358117264],[-0.5001155411457769],[-1.2245463444332876]]},"bias_o":{"rows":1,"cols":1,"data":[[0.2425566353799452]]},"learning_rate":0.1,"activation_function":{}},{"input_nodes":4,"hidden_nodes":6,"output_nodes":1,"weights_ih":{"rows":6,"cols":4,"data":[[0.4994125133864121,-0.6608493405868572,0.8063904632300753,0.1549267091739218],[0.851908483706249,-0.769999584021243,0.05044168075300215,0.669192422254101],[-0.41265462004377323,0.15468879481174144,0.4051600844742964,0.801600173602478],[-0.83027670142986,0.403671241632775,0.5180678027149352,-0.8503024577259517],[-0.3382583845506154,0.9270525876532324,0.014945041413303405,0.5383017841039864],[-0.08324071694936977,0.06906877253691913,-0.4174632486484865,-0.5686299166607027]]},"weights_ho":{"rows":1,"cols":6,"data":[[0.26204246372199,0.37715998333635115,-0.69252199726929,-0.3381172667008595,-0.6862932309963239,-1.1430481389458262]]},"bias_h":{"rows":6,"cols":1,"data":[[0.6677630582541033],[0.06886473101475127],[0.2564622265880063],[-0.7539922896426141],[-0.22035647323250487],[-1.0399606646339918]]},"bias_o":{"rows":1,"cols":1,"data":[[0.6849858009733634]]},"learning_rate":0.1,"activation_function":{}},{"input_nodes":4,"hidden_nodes":6,"output_nodes":1,"weights_ih":{"rows":6,"cols":4,"data":[[0.981968326616826,-0.6535183018850999,0.21346340123676097,0.07496335311408592],[0.5497200724924806,-0.5807811773225304,-0.42707175764997435,0.3156017104780967],[-0.3373402922164541,-0.16902061706191304,0.5817818095086345,0.8954288372438768],[-0.7756615993104532,0.18897369769903688,0.6792741778679646,-0.7727190484061869],[-0.5489729325659254,0.8154961689708871,-0.264764273826677,0.7074235634531421],[0.1377955372102881,0.20729122380768722,-0.8148325870942238,-0.34380151865303743]]},"weights_ho":{"rows":1,"cols":6,"data":[[0.19617722074879132,0.652846223639392,-0.5335740640228015,0.017190568252563904,-0.6752241072999948,-1.1891391903644173]]},"bias_h":{"rows":6,"cols":1,"data":[[0.394243905809034],[0.2262323855501635],[0.49969266605205054],[-0.6382566629151127],[0.07147646817456517],[-1.1755809467434675]]},"bias_o":{"rows":1,"cols":1,"data":[[0.4280236370715178]]},"learning_rate":0.1,"activation_function":{}},{"input_nodes":4,"hidden_nodes":6,"output_nodes":1,"weights_ih":{"rows":6,"cols":4,"data":[[0.4282558663505591,-0.7181903180664948,0.49386374803919286,0.11369289081771825],[0.9729740500583307,-0.9317702479639055,-0.21866979323054392,0.520431952331487],[-0.30149869598095996,0.11946665665713957,0.7991036034951075,0.8826523815734805],[-0.9834228995424483,0.4313351367381525,0.22313205534794914,-0.4723020158385829],[-0.5794856730044635,0.967862432367176,-0.10050883174132114,0.4713890345452243],[-0.2982143046992896,-0.08063576547381378,-0.32213013845378863,-0.3897104433336222]]},"weights_ho":{"rows":1,"cols":6,"data":[[0.23785569833461387,0.5157695581257525,-0.6944199123096595,-0.5816911123860168,-0.6853940847501103,-0.8548789208850381]]},"bias_h":{"rows":6,"cols":1,"data":[[0.398594340777193],[0.6640359412334174],[0.3793961157407355],[-0.8243820407659136],[-0.6676294300983604],[-0.8087020178710247]]},"bias_o":{"rows":1,"cols":1,"data":[[0.5424270847403647]]},"learning_rate":0.1,"activation_function":{}},{"input_nodes":4,"hidden_nodes":6,"output_nodes":1,"weights_ih":{"rows":6,"cols":4,"data":[[0.6905244230845502,-0.3788341307248044,0.7970245681658796,0.0979230752248515],[0.894124296341895,-0.7203091600061023,-0.06853271962688035,0.5792476321322381],[-0.4406945915149638,0.33880930742416154,0.6688113803594785,0.8121647494876274],[-0.7884799580142136,0.20722809736409686,0.40426410518474754,-1.1084197418961972],[-0.7349270830379154,0.8042474322886468,0.0375694024571248,0.473219933575342],[0.029165564488033077,0.17463521760123862,-0.39064143421208614,-0.5337840101091782]]},"weights_ho":{"rows":1,"cols":6,"data":[[0.2732753055756756,0.7276284239147092,-0.7203051515204515,-0.05241612440688481,-0.7927514246630849,-0.9457044039299413]]},"bias_h":{"rows":6,"cols":1,"data":[[0.23263935317323617],[0.07022318364228677],[0.5105729975965847],[-0.3766445376486555],[-0.6021618186852371],[-1.209051899098028]]},"bias_o":{"rows":1,"cols":1,"data":[[0.5117539630327219]]},"learning_rate":0.1,"activation_function":{}},{"input_nodes":4,"hidden_nodes":6,"output_nodes":1,"weights_ih":{"rows":6,"cols":4,"data":[[0.30913766192549674,-0.685908107670401,0.49341718990080463,0.16817142303450489],[0.6630426940848706,-0.608009254984811,0.10076802937473991,0.6158917738325025],[-0.2928360916365967,0.08769158484688343,0.4136274112712547,0.8968693517005623],[-1.1032024520158141,0.13587675280982986,0.7980619451313951,-0.7359188531785636],[-0.34101344085758567,0.8098065321940795,0.002168823514791543,0.34879042031718577],[-0.15778957128525437,0.020837640001199212,-0.5229194604207776,-0.4118890124306328]]},"weights_ho":{"rows":1,"cols":6,"data":[[-0.21152997958285724,0.778614697644848,-0.7488577475566905,-0.45002683844919067,-0.7974000912682736,-1.0462495003985643]]},"bias_h":{"rows":6,"cols":1,"data":[[0.7346890794822915],[-0.051414822665624915],[0.08463025149494126],[-0.450159576822184],[-0.38025079847953047],[-1.2500881770838672]]},"bias_o":{"rows":1,"cols":1,"data":[[0.8283166053837328]]},"learning_rate":0.1,"activation_function":{}},{"input_nodes":4,"hidden_nodes":6,"output_nodes":1,"weights_ih":{"rows":6,"cols":4,"data":[[0.1513631795630065,-0.36422424123566655,0.7208676828052296,0.15067856444989447],[0.7712711552415108,-0.9292318557096703,-0.031244245215298214,0.38486964415933933],[-0.5286914620930057,0.19128205930849793,0.3010132669733966,0.537235801156214],[-0.9569465395022408,0.6404460529985747,0.573901224886593,-0.612367418384836],[-0.5648043063820216,0.9291739725336421,-0.17456508022882292,0.6333928788413613],[-0.5059403798744452,0.38782757290931047,-0.5154619234431358,-0.6078399548419177]]},"weights_ho":{"rows":1,"cols":6,"data":[[0.23269769877493043,0.7831820879990414,-0.7664201486099368,-0.32296114469341647,-0.9917014360243172,-0.952654690837033]]},"bias_h":{"rows":6,"cols":1,"data":[[0.19786561224865443],[0.5897463569275938],[0.38780563936429163],[-0.3168386700864871],[-0.5558218421364467],[-1.0347915815594335]]},"bias_o":{"rows":1,"cols":1,"data":[[0.5023702485287977]]},"learning_rate":0.1,"activation_function":{}},{"input_nodes":4,"hidden_nodes":6,"output_nodes":1,"weights_ih":{"rows":6,"cols":4,"data":[[0.21869169494611465,-0.8780072364730489,0.34580779231710124,0.17764187553348001],[1.1162157286290537,-0.8736154479347655,-0.220475824425033,0.585422516455581],[-0.24773310357048356,-0.018059715186933736,0.8116581076244138,0.875792316892647],[-1.111973619759811,0.31651089040637415,0.23759145576195764,-0.4991631588543621],[-0.7148674573285567,1.1093978956601058,-0.0028958180926779153,0.3922843637422169],[-0.19492874049836634,-0.002470023295260415,-0.309163263560317,-0.18906059061059355]]},"weights_ho":{"rows":1,"cols":6,"data":[[0.3090592892395898,0.5055253085023934,-0.7507657677029038,-0.7443638310419705,-0.6344342457080501,-0.9107835398350017]]},"bias_h":{"rows":6,"cols":1,"data":[[0.3627724963058977],[0.6176180483940867],[0.1366093856873024],[-0.9080901027476929],[-0.6180812870962981],[-0.8032997462442385]]},"bias_o":{"rows":1,"cols":1,"data":[[0.6779109757148589]]},"learning_rate":0.1,"activation_function":{}},{"input_nodes":4,"hidden_nodes":6,"output_nodes":1,"weights_ih":{"rows":6,"cols":4,"data":[[0.8334426185424133,-1.1422992363827444,1.2485593919796805,-0.14097804793304936],[0.3478162441209136,-0.6415283369730312,-0.2377985882443362,1.2243921305037193],[-0.5567957613349316,0.2589891214893786,0.1939344441962127,0.5704302188125074],[-1.3584500113168068,0.5685071254727746,0.7553493486246261,-0.8349189496461008],[-0.7734859460032343,1.1156293422824308,0.00531132189255501,0.8092605279090226],[-0.13605723279665902,0.09264737680598717,-0.10806856215497326,-0.578709282607418]]},"weights_ho":{"rows":1,"cols":6,"data":[[0.03677363965768081,0.5850858195826275,-0.6789797912330697,-0.36800096741189714,-0.6131844941409961,-1.3159620011500486]]},"bias_h":{"rows":6,"cols":1,"data":[[0.43961877046499026],[-0.022606103373926434],[0.40240710790098466],[-0.7371858765242412],[-0.39561617573792296],[-0.8145655491859413]]},"bias_o":{"rows":1,"cols":1,"data":[[0.5516218333011573]]},"learning_rate":0.1,"activation_function":{}},{"input_nodes":4,"hidden_nodes":6,"output_nodes":1,"weights_ih":{"rows":6,"cols":4,"data":[[0.5922820378791913,-0.751098332027581,0.3931676632496454,0.2626420360439524],[0.7112864572224777,-0.7868777557390287,0.05849949334185792,0.4257495090451593],[-0.27865302190183905,-0.1551766625646018,0.6392684910185841,1.0685881693709034],[-1.3041432596921358,0.1801184673833353,0.3975308884769295,-0.7449681064969488],[-0.4244619686446855,0.672982583677089,0.16073746985161955,0.5710162688925081],[-0.281042523522197,0.03156270305380293,-0.23131866286383992,-0.5775059113501584]]},"weights_ho":{"rows":1,"cols":6,"data":[[-0.21311774544281842,0.6662032219148971,-0.7387769992995743,-0.26443341917332763,-0.6234423999694018,-0.8332014361882681]]},"bias_h":{"rows":6,"cols":1,"data":[[0.36474201311141047],[-0.0525749669473254],[0.23016507897302713],[-0.4798215809655453],[-0.3993514495031892],[-1.0503424668894272]]},"bias_o":{"rows":1,"cols":1,"data":[[0.8148753853785246]]},"learning_rate":0.1,"activation_function":{}},{"input_nodes":4,"hidden_nodes":6,"output_nodes":1,"weights_ih":{"rows":6,"cols":4,"data":[[0.18537587033452593,-0.5352149521791887,0.4985159467105616,0.32842725498690195],[0.8832415695417027,-0.5334480709958558,0.031699485907193764,0.9258168608942238],[-0.518194395566928,0.36828904683080854,0.6053966104866613,0.49166839136565454],[-1.163663617580174,0.3709710102558591,0.24931919556737508,-0.198003183602324],[-0.3901095552351849,1.0445306294282584,-0.20247827255259987,0.4217186444771497],[-0.474219379519016,0.017292055661699945,-0.4134936184758244,-0.20176944437417488]]},"weights_ho":{"rows":1,"cols":6,"data":[[0.46071670618512656,0.56380642713695,-0.8853829021160805,-0.4352856875379346,-0.5892230625726816,-0.6913665440612655]]},"bias_h":{"rows":6,"cols":1,"data":[[0.3587797168283636],[0.5780586949566368],[0.5275251160462024],[-0.4095076779854911],[-0.7678352976696615],[-0.9570489676490977]]},"bias_o":{"rows":1,"cols":1,"data":[[0.4005259829050513]]},"learning_rate":0.1,"activation_function":{}},{"input_nodes":4,"hidden_nodes":6,"output_nodes":1,"weights_ih":{"rows":6,"cols":4,"data":[[0.4316486354129577,-0.28703013102096364,0.5856892680006345,0.22618029090111524],[0.868798196438351,-0.5706618711235383,-0.6099144480903392,1.0205409038069282],[-0.659373021630512,-0.07010561444898489,0.3132082498371709,0.6438892197613644],[-0.6087078983981435,0.4179469574735326,0.1629897646106407,-0.95286672072682],[-0.5133374406245682,1.0541736897047451,-0.16814176163526234,0.6929643898602027],[-0.28966507313559064,0.3711352607576834,-0.38340087077180507,-0.4156048182895061]]},"weights_ho":{"rows":1,"cols":6,"data":[[0.40150987418325124,0.3518497121201651,-0.6319520461088608,-0.12505891706296507,-0.8369331002908189,-1.2390499371119523]]},"bias_h":{"rows":6,"cols":1,"data":[[0.8732894389555093],[0.5451352509342532],[0.6844967963150986],[-0.6539055069064789],[-0.5272141953006501],[-1.2471504613284994]]},"bias_o":{"rows":1,"cols":1,"data":[[0.2705252732419263]]},"learning_rate":0.1,"activation_function":{}},{"input_nodes":4,"hidden_nodes":6,"output_nodes":1,"weights_ih":{"rows":6,"cols":4,"data":[[0.22482696772992633,-1.1743276300325634,0.3627591787620415,0.0785617341269106],[0.9217830563437934,-0.8222068754176071,0.12032455483346681,0.4516187401100899],[-0.4898148479665997,-0.1745230370135138,0.9236230999568428,0.8610971201950326],[-0.819138539397641,0.2482002620760939,0.4237922769786656,-0.1589336893263935],[-0.7276010826673192,1.3359463807324778,0.0764452289566345,0.33985572669184827],[-0.3484929620777848,0.10806898160112197,-0.11605116854224844,-0.14201389227180633]]},"weights_ho":{"rows":1,"cols":6,"data":[[0.12407984995740177,0.5751832810309775,-0.655212702008497,-0.8665188401483221,-0.2986354470054672,-0.7372677582835956]]},"bias_h":{"rows":6,"cols":1,"data":[[0.4088425434992399],[0.5760417427374989],[0.19015682107188026],[-0.8561345343787742],[-0.5224702941765248],[-0.6604086945732252]]},"bias_o":{"rows":1,"cols":1,"data":[[0.4993885429969923]]},"learning_rate":0.1,"activation_function":{}},{"input_nodes":4,"hidden_nodes":6,"output_nodes":1,"weights_ih":{"rows":6,"cols":4,"data":[[0.13585891056403743,-0.9153537799649127,0.4228058345057994,0.31290429547743825],[1.024515587753726,-0.7020899779102314,-0.22481738319078803,0.662000474924084],[-0.9939131188648771,0.14421484997151515,0.598144742360972,1.0114483031333756],[-0.9249770661238086,0.5440683119608117,0.41691787614260556,-0.38382367288365116],[-0.4164671229030922,1.1080498860334917,-0.014437234450576833,0.2931314146894189],[-0.15591463404979797,-0.026919725787327223,0.1781629713200653,-0.20689629355471895]]},"weights_ho":{"rows":1,"cols":6,"data":[[-0.11231462822247384,0.7269820380807177,-0.801176789080536,-0.46431985798554465,-0.33328867327829137,-0.5889871899505115]]},"bias_h":{"rows":6,"cols":1,"data":[[0.2746348190037576],[0.5356349007587717],[0.4010527821990356],[-0.814840197780001],[-0.42672267767394995],[-0.9260520308046154]]},"bias_o":{"rows":1,"cols":1,"data":[[0.5925335962898618]]},"learning_rate":0.1,"activation_function":{}},{"input_nodes":4,"hidden_nodes":6,"output_nodes":1,"weights_ih":{"rows":6,"cols":4,"data":[[0.17409429149460018,-0.9812236250212122,0.30822251143008983,0.15210214699636943],[1.1275176154970046,-0.9200049859029441,0.06428994616233702,0.6245749922980883],[-0.21828618442921013,0.1603516238941369,0.9210177273642401,0.8496294391603564],[-1.291093785935958,-0.12871569854239967,0.5488621149856749,-0.24511558251840684],[-0.8368550373109144,1.5037510988110119,0.12785210929571583,0.29043271549304583],[-0.5378573160887635,0.19604869711110942,0.020280607125073624,-0.07725522351081597]]},"weights_ho":{"rows":1,"cols":6,"data":[[0.3128165429691242,0.8612107950486824,-0.7701657197125318,-1.04179000219248,-0.6210952833518943,-0.9372799617479641]]},"bias_h":{"rows":6,"cols":1,"data":[[0.28415419102762496],[0.47493897348636943],[0.019389510217284994],[-0.9274604901973582],[-0.6660402817992088],[-0.6482934034401846]]},"bias_o":{"rows":1,"cols":1,"data":[[0.5127790278239519]]},"learning_rate":0.1,"activation_function":{}}]
[{"input_nodes":4,"hidden_nodes":6,"output_nodes":1,"weights_ih":{"rows":6,"cols":4,"data":[[-0.7546848468718625,-0.23828954802861535,0.8601172995285289,0.026054954269742803],[-0.7141130817471439,0.9595414332906396,-0.5388202540415139,0.4362670933088244],[0.8511721504354695,-0.9252036717604277,-0.3178112340783876,0.6415772741689572],[-0.882975303054881,-0.3001617945340649,0.8566066079512604,-0.4365260086728162],[0.5526494225377412,0.5424553448549925,0.6369089118103803,0.3626480308239126],[0.5321895881896306,-0.15332180700449416,0.14883966673804805,-0.227671292534686]]},"weights_ho":{"rows":1,"cols":6,"data":[[-0.7293203876354313,-0.7984263510641258,-0.4711985120212012,-0.8587879689797786,0.9880072001586195,0.4570637003068405]]},"bias_h":{"rows":6,"cols":1,"data":[[-0.6808269014232384],[0.5767817057409703],[0.25761739234052805],[-0.9583963213883584],[0.3339260306491214],[-0.6329891859671786]]},"bias_o":{"rows":1,"cols":1,"data":[[0.21680343452844797]]},"learning_rate":0.1,"activation_function":{}},{"input_nodes":4,"hidden_nodes":6,"output_nodes":1,"weights_ih":{"rows":6,"cols":4,"data":[[-2.7214078040731335,-1.8526836080266296,2.692800015066661,2.318999358341739],[-2.3259132398666944,-1.6222209082803423,0.10040299344369341,1.6523847737948547],[0.9156981562242004,2.6313143198330025,1.247303628287466,-0.45510234338473077],[-2.426127592857787,1.8567266501419237,1.1925374482884066,0.6360432885328362],[2.535413075116193,1.5032081016219627,-3.4032814022782034,2.5494011691985414],[-2.3284404804349688,-0.2911262985503964,1.848922316187925,-1.9423535759610175]]},"weights_ho":{"rows":1,"cols":6,"data":[[-1.3170476805084923,0.12433195281521803,-0.3196569181950466,-2.121849982835132,0.999969291020556,0.5968659098826947]]},"bias_h":{"rows":6,"cols":1,"data":[[0.6985738319416934],[0.9376415499573667],[-0.4796481958158094],[-0.025685186624621936],[-1.3199887840632738],[2.8432493923470874]]},"bias_o":{"rows":1,"cols":1,"data":[[1.3979255404820616]]},"learning_rate":0.1,"activation_function":{}},{"input_nodes":4,"hidden_nodes":6,"output_nodes":1,"weights_ih":{"rows":6,"cols":4,"data":[[-1.6956799814070638,0.6436375551918849,-0.18352343818696149,1.3597257935076517],[-0.9469242586150053,-0.17185333542286685,4.221127818964424,1.4971021395109676],[-2.837581069133132,-2.8138787837224966,5.033542119788864,-0.3643327090951678],[-2.0294691514449754,-1.140724837257032,0.4415376114823377,4.692325900380579],[-4.086533997986841,-1.4142338068964526,1.574464759564462,4.834685357308424],[0.9500872389083692,0.7192747280896798,0.6371556297639465,2.140412442677845]]},"weights_ho":{"rows":1,"cols":6,"data":[[-0.7850398437130728,0.6493133454349322,3.5316384241689063,0.9225581869760038,1.1414514295965572,0.9019281524497305]]},"bias_h":{"rows":6,"cols":1,"data":[[-2.4016943387843104],[-0.15273616441222848],[0.9250363097876495],[-1.981354236665751],[-0.08859831102945193],[2.3014084902525602]]},"bias_o":{"rows":1,"cols":1,"data":[[-5.079788343221086]]},"learning_rate":0.1,"activation_function":{}}]
'[{"input_nodes":4,"hidden_nodes":6,"output_nodes":1,"weights_ih":{"rows":6,"cols":4,"data":[[-0.7546848468718625,-0.23828954802861535,0.8601172995285289,0.026054954269742803],[-0.7141130817471439,0.9595414332906396,-0.5388202540415139,0.4362670933088244],[0.8511721504354695,-0.9252036717604277,-0.3178112340783876,0.6415772741689572],[-0.882975303054881,-0.3001617945340649,0.8566066079512604,-0.4365260086728162],[0.5526494225377412,0.5424553448549925,0.6369089118103803,0.3626480308239126],[0.5321895881896306,-0.15332180700449416,0.14883966673804805,-0.227671292534686]]},"weights_ho":{"rows":1,"cols":6,"data":[[-0.7293203876354313,-0.7984263510641258,-0.4711985120212012,-0.8587879689797786,0.9880072001586195,0.4570637003068405]]},"bias_h":{"rows":6,"cols":1,"data":[[-0.6808269014232384],[0.5767817057409703],[0.25761739234052805],[-0.9583963213883584],[0.3339260306491214],[-0.6329891859671786]]},"bias_o":{"rows":1,"cols":1,"data":[[0.21680343452844797]]},"learning_rate":0.1,"activation_function":{}},{"input_nodes":4,"hidden_nodes":6,"output_nodes":1,"weights_ih":{"rows":6,"cols":4,"data":[[-2.7214078040731335,-1.8526836080266296,2.692800015066661,2.318999358341739],[-2.3259132398666944,-1.6222209082803423,0.10040299344369341,1.6523847737948547],[0.9156981562242004,2.6313143198330025,1.247303628287466,-0.45510234338473077],[-2.426127592857787,1.8567266501419237,1.1925374482884066,0.6360432885328362],[2.535413075116193,1.5032081016219627,-3.4032814022782034,2.5494011691985414],[-2.3284404804349688,-0.2911262985503964,1.848922316187925,-1.9423535759610175]]},"weights_ho":{"rows":1,"cols":6,"data":[[-1.3170476805084923,0.12433195281521803,-0.3196569181950466,-2.121849982835132,0.999969291020556,0.5968659098826947]]},"bias_h":{"rows":6,"cols":1,"data":[[0.6985738319416934],[0.9376415499573667],[-0.4796481958158094],[-0.025685186624621936],[-1.3199887840632738],[2.8432493923470874]]},"bias_o":{"rows":1,"cols":1,"data":[[1.3979255404820616]]},"learning_rate":0.1,"activation_function":{}},{"input_nodes":4,"hidden_nodes":6,"output_nodes":1,"weights_ih":{"rows":6,"cols":4,"data":[[-1.6956799814070638,0.6436375551918849,-0.18352343818696149,1.3597257935076517],[-0.9469242586150053,-0.17185333542286685,4.221127818964424,1.4971021395109676],[-2.837581069133132,-2.8138787837224966,5.033542119788864,-0.3643327090951678],[-2.0294691514449754,-1.140724837257032,0.4415376114823377,4.692325900380579],[-4.086533997986841,-1.4142338068964526,1.574464759564462,4.834685357308424],[0.9500872389083692,0.7192747280896798,0.6371556297639465,2.140412442677845]]},"weights_ho":{"rows":1,"cols":6,"data":[[-0.7850398437130728,0.6493133454349322,3.5316384241689063,0.9225581869760038,1.1414514295965572,0.9019281524497305]]},"bias_h":{"rows":6,"cols":1,"data":[[-2.4016943387843104],[-0.15273616441222848],[0.9250363097876495],[-1.981354236665751],[-0.08859831102945193],[2.3014084902525602]]},"bias_o":{"rows":1,"cols":1,"data":[[-5.079788343221086]]},"learning_rate":0.1,"activation_function":{}},{"input_nodes":4,"hidden_nodes":6,"output_nodes":1,"weights_ih":{"rows":6,"cols":4,"data":[[-4.655499489374667,1.7723071329809394,1.8072160354424924,-2.190736375207741],[1.5863681104602416,-0.4225513801761247,1.8143795737585293,3.228267381917248],[-5.848433714376109,1.882973755304723,6.496295452023785,1.8985386208579034],[-5.805000662408952,6.80881576387743,5.665551599073018,2.4696733801516952],[1.4224043966036883,0.3664790775329889,-6.212915024752018,-3.4741886629384924],[1.2108016215863828,-2.7791980292809946,3.966709275185485,-2.1545329750131224]]},"weights_ho":{"rows":1,"cols":6,"data":[[-2.8343358968233052,-0.12947457501395476,-2.1717978774105724,-1.6498578785397329,4.768710201513557,7.599382222769739]]},"bias_h":{"rows":6,"cols":1,"data":[[1.5857852810769453],[-5.763146033669328],[-0.46685783172380946],[-0.8110785204445936],[-0.900303044324871],[1.1447864546180848]]},"bias_o":{"rows":1,"cols":1,"data":[[1.8002330730188563]]},"learning_rate":0.1,"activation_function":{}},{"input_nodes":4,"hidden_nodes":6,"output_nodes":1,"weights_ih":{"rows":6,"cols":4,"data":[[-3.1452201340327086,2.1701413661953683,-1.3552096943732157,1.8744434718485707],[-4.464228206257027,6.851660525615901,-5.896427245576099,-3.416562861842609],[5.446541893242349,-6.299077751885358,3.4017484984606234,4.51887564909707],[-7.172094009596217,-3.4210140427725655,2.0529394563014143,1.6996557932272172],[0.49477686464236204,2.0514184174085894,2.5687974958253514,2.6827407827048053],[-7.195311807525936,-0.08345921534093415,4.793438781788852,-4.87682541802609]]},"weights_ho":{"rows":1,"cols":6,"data":[[1.9440781554799478,-13.921963502190929,-7.5478256160145,3.267515002516803,3.092558855619351,-4.769978123601494]]},"bias_h":{"rows":6,"cols":1,"data":[[4.975601493917678],[-0.3561554683783408],[0.8873220267902391],[-10.726357814310049],[-5.3182376600806],[2.9562888772835088]]},"bias_o":{"rows":1,"cols":1,"data":[[9.37208739790926]]},"learning_rate":0.1,"activation_function":{}},{"input_nodes":4,"hidden_nodes":6,"output_nodes":1,"weights_ih":{"rows":6,"cols":4,"data":[[-8.436147627056622,0.2766763419490763,1.906680654901642,4.167778217170165],[4.503234577957636,-0.3598769593550879,-0.9666777475838559,0.468544630119311],[6.713130016688937,-4.199688769046634,-10.180827335371145,8.286325041792384],[-8.581347472770501,-9.098085019197114,2.0298884567832793,-1.6001021067028356],[6.060433439077873,-3.0306614090868473,-6.564105414855488,1.4101219092306208],[0.8089534467643427,-5.988920340515073,6.260622061581581,-1.151471682386087]]},"weights_ho":{"rows":1,"cols":6,"data":[[4.363666087802908,-9.768663938829752,3.1881455959368594,7.094831539734356,7.966430646775791,3.5015060439243766]]},"bias_h":{"rows":6,"cols":1,"data":[[-4.534439219960431],[-8.424881694779836],[4.994679693722032],[-8.82218473297022],[4.047398953055176],[-0.5176761368364868]]},"bias_o":{"rows":1,"cols":1,"data":[[-0.8640480053542143]]},"learning_rate":0.1,"activation_function":{}},{"input_nodes":4,"hidden_nodes":6,"output_nodes":1,"weights_ih":{"rows":6,"cols":4,"data":[[5.056604161769043,-9.066006245639905,-0.45366182027922886,-2.6494549244270846],[-5.8995756208592365,-12.044334401007305,-0.08888953270898092,-0.9333813759675742],[-3.1614208108496573,-3.839965367559671,-6.631930062388261,-4.59151117948022],[-7.0498230423828385,-2.2890958613914245,4.926286731129631,-2.3102179542447634],[-14.208312653603842,3.5029760490781925,0.3193521574522906,15.001312458535782],[5.870349849068875,-10.053939670111427,5.1215209889984346,3.200804352498822]]},"weights_ho":{"rows":1,"cols":6,"data":[[1.4637484292737186,0.9770519042239183,-6.713800715314436,-22.28613838441784,6.146977443313019,9.01031246854496]]},"bias_h":{"rows":6,"cols":1,"data":[[-4.670731568329038],[-6.6353824393296295],[-6.510027694605402],[4.450755247591545],[-9.757160619106298],[11.708191041704938]]},"bias_o":{"rows":1,"cols":1,"data":[[12.466580959564443]]},"learning_rate":0.1,"activation_function":{}},{"input_nodes":4,"hidden_nodes":6,"output_nodes":1,"weights_ih":{"rows":6,"cols":4,"data":[[9.755997244222376,1.5921922944289753,6.457955277781648,0.00034668634190637704],[-10.852219720751581,-7.501586856559753,1.843871580229182,-13.37562320614602],[-11.725020550008708,0.6066958169557815,-3.754501255784093,-0.7765733295139716],[-6.9471103853216665,13.3838841672078,-7.5957524152471105,-7.434225707529881],[-11.772021973091345,9.52953120811435,2.20758576199649,11.123730251907583],[9.640118953467269,-9.170520332323296,-8.422735823020151,6.794838431789624]]},"weights_ho":{"rows":1,"cols":6,"data":[[0.023184099622829635,7.018095642321652,-8.126439747924845,-30.381312501936147,-1.9063451448659778,8.571286048079415]]},"bias_h":{"rows":6,"cols":1,"data":[[-10.639669152253642],[0.8238577298432306],[-12.821547275129591],[3.4442190204276226],[-12.173212086465682],[17.518088914000217]]},"bias_o":{"rows":1,"cols":1,"data":[[3.0619303359416197]]},"learning_rate":0.1,"activation_function":{}},{"input_nodes":4,"hidden_nodes":6,"output_nodes":1,"weights_ih":{"rows":6,"cols":4,"data":[[14.142205872094488,-7.568011025966466,-1.6606839508227722,1.684635346759631],[4.153154856285672,-7.819372337890224,-5.925132204098549,1.646815864418068],[13.800402420496042,-16.08414486006626,-4.692243599928492,-2.7697485243295175],[-2.227218276188709,0.025338811602376943,0.8505810548896013,5.611479818083121],[-6.7381431849078215,-0.9589619830933982,15.294478498906916,-8.83331216338689],[-11.368933180589346,-9.850871695587013,-9.283212694816104,6.076659074859892]]},"weights_ho":{"rows":1,"cols":6,"data":[[0.09911867078242143,-4.510038935412371,-0.017163937129248907,-1.3094991536233938,3.3852334038054472,-0.04688814741620506]]},"bias_h":{"rows":6,"cols":1,"data":[[-1.6257400292621966],[6.770824645179962],[-13.025524370766284],[-1.8812261665165497],[-3.259285960655978],[-3.587578275836276]]},"bias_o":{"rows":1,"cols":1,"data":[[10.072594008806025]]},"learning_rate":0.1,"activation_function":{}},{"input_nodes":4,"hidden_nodes":6,"output_nodes":1,"weights_ih":{"rows":6,"cols":4,"data":[[8.274941871735656,0.07755574253064701,-2.507396051451078,3.8431698262417804],[-30.66823398247204,-22.63301186469502,-9.128568172161584,-8.922719958706551],[-4.598275777362972,23.755184945993555,4.181816610160819,-12.440056477706342],[-22.564579182749345,4.392561255069651,0.8440853156833725,-4.714704237318113],[-20.37381389104914,8.346485290980038,-6.94871313311974,5.752593604501749],[8.246027083639419,-27.893907228089247,-7.248689665744712,11.275305882211978]]},"weights_ho":{"rows":1,"cols":6,"data":[[14.741835479904218,-22.579754867727914,-6.331104284550825,-27.909729809275397,7.007130189703762,-14.02309634508578]]},"bias_h":{"rows":6,"cols":1,"data":[[9.38184440458055],[16.2868500669372],[-10.756815939252299],[-6.287885125787629],[-12.278560180490818],[-1.0053161549932224]]},"bias_o":{"rows":1,"cols":1,"data":[[15.794699589740059]]},"learning_rate":0.1,"activation_function":{}},{"input_nodes":4,"hidden_nodes":6,"output_nodes":1,"weights_ih":{"rows":6,"cols":4,"data":[[-16.783805718203226,4.28466602082406,0.4374887821477582,-14.899818783560569],[17.649913724648894,23.533403522587843,0.43016858878546405,4.069215075716893],[-6.1357676631447715,-4.595729199646834,-12.952457381101379,11.739906619399243],[-3.850878163602445,14.095885134387547,-13.830812458551915,-4.868257028558092],[17.017215722212057,-21.86419992574124,-21.837137271131763,-5.106218639987199],[-5.543784213275619,-0.769662225624784,-0.6844051328005722,18.210616682245295]]},"weights_ho":{"rows":1,"cols":6,"data":[[12.304080369443223,21.236399635664213,-0.6100620730742774,-4.379470193753999,17.347936134284353,-19.55602733671695]]},"bias_h":{"rows":6,"cols":1,"data":[[20.92753577101249],[-8.624444657960813],[22.950242074863766],[-6.3141623380596865],[-28.02313192802776],[15.409900676716255]]},"bias_o":{"rows":1,"cols":1,"data":[[-8.0575066948785]]},"learning_rate":0.1,"activation_function":{}},{"input_nodes":4,"hidden_nodes":6,"output_nodes":1,"weights_ih":{"rows":6,"cols":4,"data":[[3.035744649509245,-22.0369231412494,10.59733295384941,-30.65891641496492],[-1.0483409525681129,-14.187180348742148,22.371375304927568,-27.302208554379767],[-2.611557009468966,7.366199612312194,13.840580733555726,1.3970762765654499],[8.551689975374794,0.7589152393560603,-2.553511763610076,4.114104433512871],[-35.22765746997026,16.009522779604573,-15.387685590687136,-25.683395005226245],[-10.141638365866154,0.33186236304496886,-5.502760208666568,19.7128498373431]]},"weights_ho":{"rows":1,"cols":6,"data":[[-9.823007298935343,17.2186729665234,-11.429717017296333,11.834197426945323,-3.9415968147016827,21.298798846856727]]},"bias_h":{"rows":6,"cols":1,"data":[[2.5751757036068277],[1.1581059816171715],[12.720461503177463],[-1.2306853031631748],[16.87563706162831],[-17.86814054768338]]},"bias_o":{"rows":1,"cols":1,"data":[[16.298435354554805]]},"learning_rate":0.1,"activation_function":{}},{"input_nodes":4,"hidden_nodes":6,"output_nodes":1,"weights_ih":{"rows":6,"cols":4,"data":[[6.7420912043454635,1.676960485127446,-4.439552395325064,3.9429419084100914],[8.573595198019484,-21.488983728949822,3.9193400229716167,0.422594319354026],[-40.63103036779218,25.920985583393815,21.099783928934386,9.083040380801407],[-8.791733720790285,11.585954652113145,-2.4930111920491953,-10.751256543067413],[20.685593767782006,10.509212825846921,-11.27457383850261,3.6791201025293887],[-6.219296884122511,-18.48532465808435,-0.8199293744754215,-2.0966482667687814]]},"weights_ho":{"rows":1,"cols":6,"data":[[8.865544122773777,36.51183084582416,-25.26488823977188,-23.46854181697504,1.6393174007240567,20.04180584502931]]},"bias_h":{"rows":6,"cols":1,"data":[[0.6400060531762559],[6.946640836691426],[-5.120312982191062],[-31.78920080752995],[-16.122771194449157],[-7.517582027905275]]},"bias_o":{"rows":1,"cols":1,"data":[[-11.876668259604662]]},"learning_rate":0.1,"activation_function":{}},{"input_nodes":4,"hidden_nodes":6,"output_nodes":1,"weights_ih":{"rows":6,"cols":4,"data":[[-15.586636850251951,-9.540039654822532,11.711433793146114,2.6097349648785793],[-20.60287383177606,20.03548440100932,10.399240003593835,-17.00771734242459],[-4.353412506349578,7.040433557826317,2.4621686784238506,-3.6951344638631323],[34.11507159024243,-18.489159834054476,-3.919764653499688,-16.47701456218575],[17.927117978601586,6.710957014352955,-6.137714244011639,-15.728875505286325],[-13.51904614814653,-4.597924037376492,26.94945665160266,-6.727639477089367]]},"weights_ho":{"rows":1,"cols":6,"data":[[-6.5047650770332375,-33.559408382227225,-15.533835336075521,10.99837395939931,9.631910384844522,-16.778362547501047]]},"bias_h":{"rows":6,"cols":1,"data":[[5.312380866045394],[-8.293238151226447],[-0.5424475310025754],[-23.280823029226877],[-17.72269965596047],[-19.412936886435517]]},"bias_o":{"rows":1,"cols":1,"data":[[24.675253537986414]]},"learning_rate":0.1,"activation_function":{}},{"input_nodes":4,"hidden_nodes":6,"output_nodes":1,"weights_ih":{"rows":6,"cols":4,"data":[[-11.73319061878071,14.104910601134986,20.178798205016967,11.003791942924014],[-3.60669477255842,-7.670170149063491,-9.145547995150782,-20.35085916370805],[5.835496473391347,15.26074252391485,21.980533019135127,2.3210336044389734],[-41.931289024633934,0.36040570353766377,-0.1747996885509302,18.33757898933941],[-21.711227620555924,-31.926008549667635,-1.8752801121178804,4.107143006691285],[8.78548850859683,-23.063001379959054,-27.455922592261672,-13.946352185202144]]},"weights_ho":{"rows":1,"cols":6,"data":[[1.0254923459944685,-6.875615668034469,-26.111572002186158,-8.10991229919022,-0.22288524854497993,1.3445455803285222]]},"bias_h":{"rows":6,"cols":1,"data":[[-22.088117159258786],[-12.570628059462361],[-25.608330931278772],[21.310197440552457],[-31.001090085257474],[-11.629830695166126]]},"bias_o":{"rows":1,"cols":1,"data":[[27.603718975101835]]},"learning_rate":0.1,"activation_function":{}},{"input_nodes":4,"hidden_nodes":6,"output_nodes":1,"weights_ih":{"rows":6,"cols":4,"data":[[27.634261431607186,21.101188122871648,6.2668052403867485,-1.5813778780295706],[-16.04053119729683,-6.672739372919837,23.41617254242376,-19.825031450652112],[0.3141096776787933,1.8833437730639506,-7.5621488603915505,-21.217434694071624],[5.222524502399716,-24.483513185549114,-15.596406133720105,-37.71923752788743],[-1.2702405744721084,-20.1193301870861,-4.431327858163,14.039108527023847],[-33.33016553346512,32.73245158682175,3.569944625321533,28.699908178508736]]},"weights_ho":{"rows":1,"cols":6,"data":[[8.099365904155837,21.562697294497134,13.376252687410547,14.39119379278043,37.79918787922206,-32.29664424329705]]},"bias_h":{"rows":6,"cols":1,"data":[[39.68000552706308],[-20.677165721345858],[16.705593233261745],[-37.786578364749694],[4.616761071313849],[19.081635542229993]]},"bias_o":{"rows":1,"cols":1,"data":[[15.876515222328422]]},"learning_rate":0.1,"activation_function":{}},{"input_nodes":4,"hidden_nodes":6,"output_nodes":1,"weights_ih":{"rows":6,"cols":4,"data":[[26.899954564014955,50.51363293957296,-26.347423863602888,3.386184361961016],[29.518518566857608,19.73337017314647,-9.914830594495527,-6.518251802513922],[-15.42925379299649,10.666088365946466,-0.8047987778466101,2.420296368478157],[-11.878310570942194,-9.149312770217824,11.966458089414761,-6.089457413635653],[2.633465430725261,2.058375482510172,26.57973881528613,18.1557344744484],[13.419544878376232,-25.218464605029197,-49.33740068967205,-19.593463278393678]]},"weights_ho":{"rows":1,"cols":6,"data":[[-0.7973055989842344,52.88836198094975,-42.9776397004204,-10.256104979470427,13.773701579551702,-50.30568095702635]]},"bias_h":{"rows":6,"cols":1,"data":[[-4.745403028515524],[6.319123119991069],[-8.59911298523317],[10.836970602354931],[-82.21487430658294],[-31.863075262181372]]},"bias_o":{"rows":1,"cols":1,"data":[[-28.05117916889938]]},"learning_rate":0.1,"activation_function":{}},{"input_nodes":4,"hidden_nodes":6,"output_nodes":1,"weights_ih":{"rows":6,"cols":4,"data":[[-14.447864693604451,11.552132929237061,-20.16076954248477,27.22771700592959],[-41.23893855799895,16.62749866842359,36.59427013735649,-23.856071651922235],[-2.4006297509338808,18.621844629687253,-1.053293685383223,18.136749787619863],[-9.014560356900502,-69.89746339150565,37.16269794892009,3.812323181334353],[-28.168123569581347,59.44361946543763,2.0739908440328794,27.2733258087068],[-12.715329609927966,-12.71330975401401,7.964514171626766,-10.019530103472938]]},"weights_ho":{"rows":1,"cols":6,"data":[[2.7766796131736964,-25.042885418766367,-12.547651621327699,3.5460357925741883,-4.427687852466183,-34.49919038244884]]},"bias_h":{"rows":6,"cols":1,"data":[[-7.547356637047899],[-19.24710502257841],[-21.796301710282666],[6.509791733569704],[-25.174644791062786],[-25.70982932268565]]},"bias_o":{"rows":1,"cols":1,"data":[[17.536818943035005]]},"learning_rate":0.1,"activation_function":{}},{"input_nodes":4,"hidden_nodes":6,"output_nodes":1,"weights_ih":{"rows":6,"cols":4,"data":[[-34.3194428956823,20.376253476039867,27.951339690061438,-2.636639014595211],[71.66945216801821,-40.466862045188314,-45.212937936959804,28.835657778604126],[-40.46459941260099,-0.9136784038037975,5.882780958749123,-12.794139493193086],[-48.06670899776689,-36.51325945940194,37.9151532077301,-7.019365802764173],[-30.46370150109243,12.88823956312336,-22.307628083353997,22.14876411194993],[-15.01185566661422,-2.6926078520639862,-18.788593608585536,11.521951395795332]]},"weights_ho":{"rows":1,"cols":6,"data":[[7.5512093854426485,-4.036387372600551,-17.70753362799969,-14.606839433182632,44.239896029976585,-6.5308983805536585]]},"bias_h":{"rows":6,"cols":1,"data":[[-7.725489009706362],[-29.7397858432944],[36.39461756611215],[-41.38090139021685],[3.405921001281385],[-5.191116044422484]]},"bias_o":{"rows":1,"cols":1,"data":[[1.2144177607724842]]},"learning_rate":0.1,"activation_function":{}},{"input_nodes":4,"hidden_nodes":6,"output_nodes":1,"weights_ih":{"rows":6,"cols":4,"data":[[-33.29769359310514,10.235196406013886,25.97808557051115,-6.946716599222285],[58.33788952556657,-7.751932601089344,-47.51146305981434,8.885096330404853],[-18.791558776619066,14.169136784369973,24.727431888100796,33.4457387962926],[-27.154928011026072,53.34633589704593,28.1731696019325,1.9419480850881232],[37.31399516453402,-38.599585485071046,-13.540665094131121,17.53984712819398],[30.858958225439416,-15.7361706396605,59.600485593678385,-16.329793584633446]]},"weights_ho":{"rows":1,"cols":6,"data":[[3.0622628689591718,97.92914153830635,-37.650606696208186,-54.467922738201764,29.138467702052832,-13.69191280507356]]},"bias_h":{"rows":6,"cols":1,"data":[[33.95636155821887],[1.7202627956287095],[-12.248526919758014],[-64.03655979408772],[-9.330548714086568],[-33.36505192620365]]},"bias_o":{"rows":1,"cols":1,"data":[[-44.743975878105886]]},"learning_rate":0.1,"activation_function":{}},{"input_nodes":4,"hidden_nodes":6,"output_nodes":1,"weights_ih":{"rows":6,"cols":4,"data":[[-13.774604761621493,17.580464540876278,33.904216115004544,-49.40351075211058],[87.06646369592434,-28.293095479009747,-52.96122062366898,-13.001443842032264],[-32.5008393784819,35.54851344498004,11.55851560084934,61.8873103249947],[-14.186167390960666,65.09771300293988,-3.2453008200076567,31.167087842588277],[33.55574594898361,-48.401035253362906,-8.76620896440997,8.585969277412277],[14.000157257870965,-44.64056914322486,60.65892038046324,-60.30366310142858]]},"weights_ho":{"rows":1,"cols":6,"data":[[-9.084010628433811,74.20540419762526,8.804498934530706,-54.2553370690343,-5.544310342085696,-30.614621295595335]]},"bias_h":{"rows":6,"cols":1,"data":[[43.185006548609906],[-3.9750658164869623],[-1.3872921322273264],[-63.191495411369175],[13.672732682798856],[-29.630031176294104]]},"bias_o":{"rows":1,"cols":1,"data":[[-12.057307112002881]]},"learning_rate":0.1,"activation_function":{}},{"input_nodes":4,"hidden_nodes":6,"output_nodes":1,"weights_ih":{"rows":6,"cols":4,"data":[[-11.608649337990158,-4.117453773260543,20.736459428597605,4.490002750998588],[23.583540553228904,-17.46296876860753,-15.463817132339646,43.197734660446514],[-33.75246472104685,9.493264683462778,18.057289463440497,18.069370785662297],[-56.3676391898655,62.992804900631384,44.93772655267388,9.042249764914228],[27.01369154378215,-42.12657935949434,-28.878100634222253,30.88424427698218],[33.759018103792414,-29.11034756617711,62.88943848546022,-44.55546799554259]]},"weights_ho":{"rows":1,"cols":6,"data":[[-0.02539531422861252,123.47700107983842,-22.136965842400798,-41.06206202981576,28.743551669658554,-9.741599471680392]]},"bias_h":{"rows":6,"cols":1,"data":[[24.490299946201823],[3.6262508744518644],[-55.59689380934816],[-55.83691577918287],[-7.873004774151683],[-9.461441776017761]]},"bias_o":{"rows":1,"cols":1,"data":[[-45.68443819854596]]},"learning_rate":0.1,"activation_function":{}},{"input_nodes":4,"hidden_nodes":6,"output_nodes":1,"weights_ih":{"rows":6,"cols":4,"data":[[6.74751115857643,10.433929667768172,59.21151118249082,11.084202729081873],[98.7905526370724,-23.91955759826887,-20.95564283599512,20.01591669680656],[-28.85503449893137,-12.911956184759525,-6.019935340320352,91.75684319600747],[-99.88120666722207,61.39685754187403,-2.7021077488660765,14.060450299000394],[30.41497116851406,-29.493518230658125,-4.4352772489882,-49.616159423653656],[69.04563517942367,-40.13484932766899,33.54121656232872,8.0108481395845]]},"weights_ho":{"rows":1,"cols":6,"data":[[43.966737360092154,43.575675155160646,17.663510287956672,-80.73636985902463,30.200990837123655,-48.79001500899986]]},"bias_h":{"rows":6,"cols":1,"data":[[9.11844046871062],[1.4610661727496748],[-2.5936666569601847],[-33.941708052577525],[-29.803910786816175],[-40.09711972408704]]},"bias_o":{"rows":1,"cols":1,"data":[[-46.49267876582564]]},"learning_rate":0.1,"activation_function":{}},{"input_nodes":4,"hidden_nodes":6,"output_nodes":1,"weights_ih":{"rows":6,"cols":4,"data":[[-36.99534370495566,83.98440787538179,9.335865347182658,-44.65374450726905],[89.22267405106632,-32.5231818704123,-53.40282613054136,-6.830914293748174],[-23.782773657008452,20.149134149920453,42.537276135367584,91.56708655114723],[-38.26059429891373,59.18183713530649,-21.378454356347603,26.561963555946377],[30.328245712659022,-43.57060252248718,25.532003312184344,43.532020316038775],[10.681977386311782,-59.831313608226864,89.70001370744211,-42.15698627275282]]},"weights_ho":{"rows":1,"cols":6,"data":[[0.06646792792659006,66.05230754262325,26.35211093750783,-87.5157669638464,-22.43389834584744,-23.014740036882337]]},"bias_h":{"rows":6,"cols":1,"data":[[54.97929530029254],[-4.6235376875953165],[-34.85044230179861],[-46.29658142753607],[-46.75322517411682],[-58.56123935007936]]},"bias_o":{"rows":1,"cols":1,"data":[[-28.958483110266283]]},"learning_rate":0.1,"activation_function":{}},{"input_nodes":4,"hidden_nodes":6,"output_nodes":1,"weights_ih":{"rows":6,"cols":4,"data":[[77.72687397225772,16.040102519958836,70.08276018625112,34.50944682821438],[88.3358818800414,-68.91870021146923,-69.29671471353235,-20.832894962885838],[-29.734591992875572,23.979039029348506,60.80347712033506,91.98838100034757],[-72.39457585001377,65.75845696259069,-5.4813190455743594,44.65322479422986],[73.1777279297878,-108.96627702945943,23.46017028775456,-45.309493551649545],[35.99879060133361,-82.78696415295069,5.926856016290753,-41.55089361415741]]},"weights_ho":{"rows":1,"cols":6,"data":[[29.38704619263899,47.79976846716691,81.5132083929949,-37.36594815546777,-20.218954409694767,-57.263374911210306]]},"bias_h":{"rows":6,"cols":1,"data":[[-0.887400619688389],[10.47880547460185],[15.019484164316122],[-48.91409733602673],[29.764772315124553],[-86.14116760349934]]},"bias_o":{"rows":1,"cols":1,"data":[[-81.48468651500465]]},"learning_rate":0.1,"activation_function":{}},{"input_nodes":4,"hidden_nodes":6,"output_nodes":1,"weights_ih":{"rows":6,"cols":4,"data":[[-93.87886214890635,5.5994163958029635,43.20709584387888,-64.6126876930532],[76.62573291124194,-53.49566080606808,-68.9750914996481,-17.73582257669802],[13.043981517190764,32.103422391536284,34.70769621863023,76.97438100544518],[-23.14655950634154,53.680292106784044,-33.03133168461166,20.011251146375223],[19.338981737919525,-91.01936574287791,11.5872664024851,4.087053010243549],[10.214642852367824,-75.38024351945946,63.01289814356609,-86.90754562022371]]},"weights_ho":{"rows":1,"cols":6,"data":[[-64.19655280028209,48.612441336776655,-27.970819179360188,-46.92922506561247,81.0709443846459,35.009749976089076]]},"bias_h":{"rows":6,"cols":1,"data":[[39.02425995941424],[3.4244440509327063],[-38.894937936973356],[-91.16947707628067],[7.485700198214554],[38.06847078683779]]},"bias_o":{"rows":1,"cols":1,"data":[[-12.645189114959193]]},"learning_rate":0.1,"activation_function":{}},{"input_nodes":4,"hidden_nodes":6,"output_nodes":1,"weights_ih":{"rows":6,"cols":4,"data":[[44.491214184293,-41.453771866606175,128.95196454519316,117.79280537170087],[141.34419291946472,-17.757936686166797,-70.81432138631126,8.956039360958018],[-41.782202219256455,-50.70903534592016,-17.37161848429009,27.86344842337968],[-47.806416224156216,83.12951777844809,71.74666941183226,64.05103772926108],[42.78701799725538,-48.60440725868087,-89.41963410354344,-33.008443943311335],[1.461382033568043,-107.76573484509902,91.18756777292678,-17.50849825796288]]},"weights_ho":{"rows":1,"cols":6,"data":[[136.35399968034048,10.716444098425644,66.27653285029267,-60.77675409881024,-35.55763644721602,-103.87214478088316]]},"bias_h":{"rows":6,"cols":1,"data":[[-4.273679681644214],[-7.898373005008699],[45.26683034211886],[5.870639278161704],[-53.4361487692607],[33.850737146281936]]},"bias_o":{"rows":1,"cols":1,"data":[[20.17400345578134]]},"learning_rate":0.1,"activation_function":{}},{"input_nodes":4,"hidden_nodes":6,"output_nodes":1,"weights_ih":{"rows":6,"cols":4,"data":[[-8.1564397375356,-36.82267292431438,-84.33686893308096,32.43481341590348],[34.160294830106324,-15.974355421696725,14.67084089076616,6.296421006426847],[-148.8114871749163,43.97826938044582,21.632793773785114,20.3705479297071],[-27.580204223598944,172.36662447832543,54.207939485740916,42.299209857063076],[-39.45622002774671,-25.464490224144306,59.705586779545285,-113.90940776729843],[-55.13680283834219,-29.809275099192185,4.485288362828822,-21.33856000238025]]},"weights_ho":{"rows":1,"cols":6,"data":[[62.60769453765147,-101.41670115535332,-119.700578209351,57.309461750004644,-43.07087835419426,49.766030700934806]]},"bias_h":{"rows":6,"cols":1,"data":[[142.32907842047098],[-101.42770556128139],[15.283481655380196],[28.46659599719666],[-49.09592663394989],[42.88924547233029]]},"bias_o":{"rows":1,"cols":1,"data":[[4.732810054613802]]},"learning_rate":0.1,"activation_function":{}},{"input_nodes":4,"hidden_nodes":6,"output_nodes":1,"weights_ih":{"rows":6,"cols":4,"data":[[28.73393726389949,-51.99964255155749,127.55988295681479,-57.09521345560062],[77.54047251066574,-8.665500753861423,-158.6536160083228,55.669613210399135],[-21.665830294238724,75.56101079277698,66.9732989153054,125.41492660122812],[44.815302278201884,122.45176798788702,80.92122012329864,58.246580948301926],[54.830254111326504,-89.25812897058628,-17.786721362490873,48.7987090906215],[-7.041186228498063,-150.86384847782514,60.825975435426706,-202.88683975351682]]},"weights_ho":{"rows":1,"cols":6,"data":[[5.535891419657641,128.29196980025,6.831715969334866,13.137974304055646,-62.681290128519876,-41.25477810875812]]},"bias_h":{"rows":6,"cols":1,"data":[[9.00829272116297],[31.432778527020464],[112.37845350856938],[-3.0067739225389616],[54.971248741261235],[68.62996904294593]]},"bias_o":{"rows":1,"cols":1,"data":[[44.90779675380661]]},"learning_rate":0.1,"activation_function":{}},{"input_nodes":4,"hidden_nodes":6,"output_nodes":1,"weights_ih":{"rows":6,"cols":4,"data":[[-62.8836899258049,99.17480375634177,79.42607634916388,39.487819371274405],[132.43044725244206,58.51035986222814,-109.34043030007275,60.59047586190725],[-15.798381698872479,65.30546655144757,-3.0787979065363515,38.20264782506807],[-55.95967365529939,110.27348504620277,0.2805835656192599,91.9077408371244],[61.21042599572681,39.100758327000676,46.97196476915623,36.193622831855684],[85.97673157996604,-38.55515336365393,90.05776232860377,-29.93228163512196]]},"weights_ho":{"rows":1,"cols":6,"data":[[49.072520883259955,168.42210211976746,-94.50501141951636,-5.747134236261145,34.48402976779933,-17.048845891960845]]},"bias_h":{"rows":6,"cols":1,"data":[[-98.84779874898317],[-12.921900400828559],[-154.7120244315626],[-25.34242779968075],[65.80021980263531],[-8.564057578521535]]},"bias_o":{"rows":1,"cols":1,"data":[[-54.848707964493215]]},"learning_rate":0.1,"activation_function":{}},{"input_nodes":4,"hidden_nodes":6,"output_nodes":1,"weights_ih":{"rows":6,"cols":4,"data":[[89.33266385733758,-39.855995522503164,-8.050095569637485,49.41211704838818],[-34.908244696773934,-157.53495056360146,-81.22393561298833,29.098418401883837],[-10.150942790502612,19.792523274361834,56.1063847051619,68.40504674794879],[-121.036052271828,-33.27653008095557,108.7225543088521,-14.862290924119762],[-23.70007701420336,-58.42612142637714,34.611410061863324,104.92269504864731],[143.20884618263423,-62.02388154000376,2.551235221706456,52.968222961371836]]},"weights_ho":{"rows":1,"cols":6,"data":[[42.08639739953428,-127.41287704068091,45.38353326015424,-98.69773478877207,102.03181654403225,-22.01817838996708]]},"bias_h":{"rows":6,"cols":1,"data":[[-93.9185672589897],[15.998951436338942],[55.66450273740808],[2.590539182692517],[38.28401880234137],[-10.474016654851903]]},"bias_o":{"rows":1,"cols":1,"data":[[6.323775073954055]]},"learning_rate":0.1,"activation_function":{}},{"input_nodes":4,"hidden_nodes":6,"output_nodes":1,"weights_ih":{"rows":6,"cols":4,"data":[[33.50747622469955,1.0913578670821913,130.91158151662918,-126.97191938778545],[174.8653608346655,-27.349443981047358,-165.41291060403336,-9.959735372256084],[15.520046578166365,32.01842207001255,107.95652462099999,-33.155735033389604],[71.48070051101692,47.12117034583925,-75.57640119225374,41.56230124598808],[137.70727613757367,-40.53460054190812,6.229282743135908,-9.45311894232885],[26.73151627495335,-71.91233949451907,140.3484453631179,-38.06615999827642]]},"weights_ho":{"rows":1,"cols":6,"data":[[25.783495806130663,198.57480816722057,93.3158676885756,-31.11999014323593,111.61943855905237,48.69789274269756]]},"bias_h":{"rows":6,"cols":1,"data":[[96.25358410627001],[-45.3317606072696],[-19.95159129274019],[-121.53932513529472],[-62.46409394743997],[-10.335668806945023]]},"bias_o":{"rows":1,"cols":1,"data":[[-91.56681626778364]]},"learning_rate":0.1,"activation_function":{}},{"input_nodes":4,"hidden_nodes":6,"output_nodes":1,"weights_ih":{"rows":6,"cols":4,"data":[[-5.220492734032895,-90.76396146819212,154.58496619522103,-44.71993740928458],[-7.465397815467185,-38.61238532358717,-64.33252969941908,1.5225294802909488],[-33.61578312872328,-93.26805737696034,109.90481194606025,-1.2958381610462553],[-182.70028731820236,75.67558174883881,139.06392401709888,-52.65235629582918],[87.51946504517898,-44.792161244701354,-158.7628254961482,-23.988367132356295],[142.08847789437363,5.818413598730764,113.83262996340235,-102.59218070937253]]},"weights_ho":{"rows":1,"cols":6,"data":[[-65.90078163384558,76.47027808411507,89.05946510968516,-195.35826365515703,112.88731971661139,170.95431022942643]]},"bias_h":{"rows":6,"cols":1,"data":[[3.7427161321779536],[-11.116530156803343],[140.15380098330166],[11.012160239878781],[-231.49966811314505],[68.32703625103701]]},"bias_o":{"rows":1,"cols":1,"data":[[10.065404966053052]]},"learning_rate":0.1,"activation_function":{}},{"input_nodes":4,"hidden_nodes":6,"output_nodes":1,"weights_ih":{"rows":6,"cols":4,"data":[[82.18655408221522,-153.4859541146139,-105.24639584287748,-9.37097986995828],[-113.97544197801938,28.367117069993256,-23.88309935098094,-168.59567173640158],[-73.88293226628083,79.51925106748142,20.423384621019302,-58.937903317906446],[-155.31771806299903,97.74419416329265,42.16765830987265,-6.625562246407453],[13.18910187244942,15.958676365141837,-164.95385928286893,152.35988394689187],[89.96719943652607,8.535119641535267,72.1143041565897,1.9324001835079123]]},"weights_ho":{"rows":1,"cols":6,"data":[[-80.34825401819482,8.364544373936738,-35.862687988816205,-199.3778022287538,36.791372810204734,142.51652207267495]]},"bias_h":{"rows":6,"cols":1,"data":[[46.2251539298328],[-34.63770293312304],[5.211743061432816],[9.316481197676005],[8.447194236545034],[19.712316949022693]]},"bias_o":{"rows":1,"cols":1,"data":[[72.09687023765076]]},"learning_rate":0.1,"activation_function":{}},{"input_nodes":4,"hidden_nodes":6,"output_nodes":1,"weights_ih":{"rows":6,"cols":4,"data":[[43.71671654188686,16.045739585305476,347.46930055641747,11.872868418491226],[-191.81833088099881,-87.21415570794373,74.77920744994746,-89.85583342689951],[-76.31127591099708,-119.26860253336488,219.8237283420542,-47.12676199240022],[-135.30343752851275,90.0109477004957,38.41366107098738,23.93373518775791],[57.04427359610355,-166.4364043904259,15.301505447382635,-63.41860301674353],[187.46822797931392,-155.03709083083476,205.59275227148345,-72.90532173420615]]},"weights_ho":{"rows":1,"cols":6,"data":[[13.742083435457985,-47.82445407848114,121.03117682523595,-34.88091832873161,125.56422836915665,-80.6865022056621]]},"bias_h":{"rows":6,"cols":1,"data":[[-151.85221828576064],[-123.01042896932918],[157.6559257194721],[23.57539494823461],[-169.25907482638075],[107.83833324990609]]},"bias_o":{"rows":1,"cols":1,"data":[[31.36322941894977]]},"learning_rate":0.1,"activation_function":{}},{"input_nodes":4,"hidden_nodes":6,"output_nodes":1,"weights_ih":{"rows":6,"cols":4,"data":[[4.478828987695376,37.31302115788098,295.2850882074103,69.81180894894344],[-132.59091049293548,-69.58263717032861,183.23372296728564,-22.619677911688832],[-15.243822529677942,-99.11437473044643,226.1017647489213,-122.28215180440671],[-94.85332660176911,122.92909708980275,29.269938127077467,-35.44379361234418],[139.34586788960766,-163.33565139121862,24.61273551037016,-82.13884378776675],[172.25826243690042,-145.43406345525494,49.104927900526754,-45.823225356168486]]},"weights_ho":{"rows":1,"cols":6,"data":[[-12.59624705722403,89.84873454825879,160.18658399938116,-160.44212983389687,48.83509868609293,16.252664271294055]]},"bias_h":{"rows":6,"cols":1,"data":[[-57.34290649263924],[-30.811588012197568],[198.4781279641728],[32.764623778711204],[-113.74359336182168],[102.70300431246159]]},"bias_o":{"rows":1,"cols":1,"data":[[-14.081006794875584]]},"learning_rate":0.1,"activation_function":{}},{"input_nodes":4,"hidden_nodes":6,"output_nodes":1,"weights_ih":{"rows":6,"cols":4,"data":[[55.9473714489387,-30.076763973592847,-13.947703755237285,49.364730380988775],[-60.82363165984802,-232.13824649232282,62.6827351841362,-168.33058812229606],[23.513761388392936,-34.98351723906569,48.547089487046705,8.384734832741053],[-286.1008476797412,186.4467382236282,112.28889640072693,-106.34021992311779],[-40.13426031304133,73.23395454715984,-137.48564584264236,-90.7532070057039],[238.08774353946177,253.30916232662113,-84.74758222604191,5.887745639992126]]},"weights_ho":{"rows":1,"cols":6,"data":[[21.00872163519398,-76.02158801303823,37.067917378294894,-218.25385534730174,88.23375797972166,195.9488442000472]]},"bias_h":{"rows":6,"cols":1,"data":[[-100.14951900640621],[-62.787259070271894],[-79.61472123084415],[40.00501183841713],[12.058893927767066],[-1.9243079300127661]]},"bias_o":{"rows":1,"cols":1,"data":[[27.764451167165717]]},"learning_rate":0.1,"activation_function":{}},{"input_nodes":4,"hidden_nodes":6,"output_nodes":1,"weights_ih":{"rows":6,"cols":4,"data":[[-139.25964394952985,-84.8787240896097,-29.182176131080695,-156.68366133644358],[60.394670123830075,47.30619725613133,83.42265977282979,-18.09344247997611],[15.669506494450978,123.38345325704393,205.00950375103696,-18.756416295299204],[-306.6746171591559,152.14632648135034,158.9658165945379,6.553571893950867],[259.7312019386327,-118.38860796848292,-322.7532061782123,-95.70436966218392],[114.20322195425157,-76.80906782054285,-227.33662572864995,23.735513091645103]]},"weights_ho":{"rows":1,"cols":6,"data":[[-127.80972888071442,-58.187674118626624,139.05667363605215,-320.6610614180652,83.47145079233023,171.6783127383313]]},"bias_h":{"rows":6,"cols":1,"data":[[15.413111568871315],[-205.9977964812461],[-105.57033704007416],[14.67874603674759],[144.31900570656083],[-45.30221442104783]]},"bias_o":{"rows":1,"cols":1,"data":[[6.258703453741212]]},"learning_rate":0.1,"activation_function":{}},{"input_nodes":4,"hidden_nodes":6,"output_nodes":1,"weights_ih":{"rows":6,"cols":4,"data":[[-55.68314024804187,-98.16306066277704,-18.610978664308085,-34.9498671477082],[-141.86298496395713,-18.98780354492802,-189.14531623807878,-165.44447440447516],[2.2826120295277725,-19.418636758683476,161.0764279059534,-5.394773742881753],[-420.6549800324085,137.67224650032625,50.74448484028298,55.59342155873754],[-7.596117926208571,-11.93812474598738,-127.64698355972465,2.4836142815184985],[96.05483445004337,79.17473793553671,-190.07330036304228,-63.05673408470304]]},"weights_ho":{"rows":1,"cols":6,"data":[[-16.842247187206006,-165.78760041091908,32.9269832381616,-125.6973703708525,-35.66522779549329,18.005021115562712]]},"bias_h":{"rows":6,"cols":1,"data":[[47.99366422153079],[66.18890367037181],[-35.24881727028323],[-27.819515968031922],[-229.43848685041002],[-192.49578502867604]]},"bias_o":{"rows":1,"cols":1,"data":[[188.40715156818175]]},"learning_rate":0.1,"activation_function":{}},{"input_nodes":4,"hidden_nodes":6,"output_nodes":1,"weights_ih":{"rows":6,"cols":4,"data":[[-29.842901663540218,-131.99267970465385,-50.76472769374658,71.06658942641812],[10.619772420202523,-130.84650332014363,-131.04409312807942,33.89961820152891],[72.70184937715473,-44.206127179871,147.72877091499225,18.11242945167139],[-361.89305032788195,178.7511395887438,92.48630619986245,-94.29459453653922],[10.256303368302568,-40.42560294057424,-101.01825753453889,47.32081006797353],[24.196472684622407,-125.70793690534396,-205.19153857853408,-307.10969728603294]]},"weights_ho":{"rows":1,"cols":6,"data":[[103.30879747658932,23.84976902970029,116.05794538959215,-333.53067317534055,-163.36668213746407,-28.67406275349021]]},"bias_h":{"rows":6,"cols":1,"data":[[34.8455915396304],[-235.22801469063762],[7.710038206163482],[55.26452459265768],[-171.61121219204406],[-14.58550804795658]]},"bias_o":{"rows":1,"cols":1,"data":[[3.9113141332437635]]},"learning_rate":0.1,"activation_function":{}},{"input_nodes":4,"hidden_nodes":6,"output_nodes":1,"weights_ih":{"rows":6,"cols":4,"data":[[-108.5784627409654,-33.20389902005309,-44.190655973837046,-223.45255580128486],[13.179402670951333,212.22404407297074,-194.2652023845806,-134.6842954450858],[16.713395353118905,58.174033412406494,66.77381558170597,254.7421681620296],[-419.89711724075175,84.97943816571185,241.80613454101763,-11.923238566879427],[159.30437775739676,-61.5736895141617,-324.7704431908185,-45.82507552700663],[164.18753841271467,77.53758203389688,-33.81362500723839,70.13543316142287]]},"weights_ho":{"rows":1,"cols":6,"data":[[-15.577062957181226,-51.98308178688818,97.16182472973902,-140.36819419658985,-140.3733627746239,145.02763407247988]]},"bias_h":{"rows":6,"cols":1,"data":[[-177.34604484563448],[50.55391691779423],[-128.7012096738258],[45.88701549229708],[-218.90919485771943],[-157.51493709133064]]},"bias_o":{"rows":1,"cols":1,"data":[[108.52091263501144]]},"learning_rate":0.1,"activation_function":{}},{"input_nodes":4,"hidden_nodes":6,"output_nodes":1,"weights_ih":{"rows":6,"cols":4,"data":[[-140.0736926052087,115.79046667257718,-50.754417472869434,5.202721963326944],[48.643506778210515,-118.42761461735451,-84.06787974213611,16.626208966828692],[-258.25797791393825,-35.381435949530186,325.02565522195215,23.950615784827512],[-485.8615882465415,347.6462432914219,115.93372147598045,82.2359802154773],[-21.607676625556678,63.59237123046435,21.019059009493446,-72.62550150360447],[-102.9632478125261,-271.8033156577101,112.05577925331882,347.33066675498713]]},"weights_ho":{"rows":1,"cols":6,"data":[[-127.65802016124016,-191.70265578803964,88.56531467627696,-356.6608095850416,9.98625923063313,148.90297760821565]]},"bias_h":{"rows":6,"cols":1,"data":[[71.43250786191467],[-106.3236038236237],[-138.97413999274247],[9.766313523379957],[-183.4942678175515],[21.663224827277595]]},"bias_o":{"rows":1,"cols":1,"data":[[275.1751837899243]]},"learning_rate":0.1,"activation_function":{}},{"input_nodes":4,"hidden_nodes":6,"output_nodes":1,"weights_ih":{"rows":6,"cols":4,"data":[[108.93993084897065,-21.304757471447928,-42.37473269966769,-64.50408526696803],[-92.18163947867663,81.61420371547598,-366.92288074621496,-98.7024497566513],[-195.65661506808112,-201.42420978126995,51.137636062191284,60.595202316243125],[-402.71166801628624,264.0238686833543,-128.0119853348988,-46.63207916754666],[-80.84134953048667,-57.39099164442164,-275.743145376676,-135.16233147094457],[-49.20000020641378,126.33681451164917,-54.05609029237239,45.09890429786733]]},"weights_ho":{"rows":1,"cols":6,"data":[[-63.78630081529134,-403.8529031934603,-41.34920335614994,-239.59168142299131,39.02013773212656,-329.45561010388724]]},"bias_h":{"rows":6,"cols":1,"data":[[-178.30199342041982],[-103.02087472952168],[-309.0040624295393],[151.64478796016562],[145.08400802285664],[-71.46646058870144]]},"bias_o":{"rows":1,"cols":1,"data":[[335.60799303370635]]},"learning_rate":0.1,"activation_function":{}},{"input_nodes":4,"hidden_nodes":6,"output_nodes":1,"weights_ih":{"rows":6,"cols":4,"data":[[-102.75014528521649,0.23347082413099685,66.59543121007447,-242.1149910860021],[89.55332122159567,82.56948920337592,130.92264541268955,-243.32200000497485],[2.3830671960648075,223.25983881901598,205.97032497618343,-36.45839724550365],[-411.437465395914,62.77809183627769,43.525474488117524,114.01842525109416],[440.21045411321194,-53.68628433314225,-189.87056649103314,74.79489111351157],[27.937797731237836,-41.3011221469697,-242.9829434857961,-132.75667154392818]]},"weights_ho":{"rows":1,"cols":6,"data":[[-65.12352532022742,-16.69743304774188,42.457178908774544,-296.4055952351907,163.94367658529194,-38.878929752889746]]},"bias_h":{"rows":6,"cols":1,"data":[[-117.50221560557608],[-165.31684674884696],[-24.563409786650304],[-34.73160518190093],[128.38312287014688],[-209.8553464057175]]},"bias_o":{"rows":1,"cols":1,"data":[[92.66404662765815]]},"learning_rate":0.1,"activation_function":{}},{"input_nodes":4,"hidden_nodes":6,"output_nodes":1,"weights_ih":{"rows":6,"cols":4,"data":[[48.36132928967858,-165.76234057715072,-151.30400776464293,-40.770493198135796],[-154.80510369545487,46.02919888789552,-37.41154962745891,243.62859347245563],[-35.246642443386804,18.074981094367274,120.15666062429653,-28.535043476881498],[-390.8182142017283,232.37743541010246,521.8781897983789,-143.66696889376527],[-47.82365987552661,159.7477155065153,16.270371852724523,-163.58644269204615],[130.3340160637071,-141.87671161027382,-411.34832487822564,-119.1299525081846]]},"weights_ho":{"rows":1,"cols":6,"data":[[-265.48792396983106,38.665225491887,-196.31209973849477,-142.78535640827138,32.3026098109374,-119.76315510104476]]},"bias_h":{"rows":6,"cols":1,"data":[[-68.92750990192937],[208.76201788285587],[-42.34477001272741],[21.694132744352956],[-1.8986693036592897],[-101.35766868497882]]},"bias_o":{"rows":1,"cols":1,"data":[[270.22689291824815]]},"learning_rate":0.1,"activation_function":{}},{"input_nodes":4,"hidden_nodes":6,"output_nodes":1,"weights_ih":{"rows":6,"cols":4,"data":[[-225.8916486420631,-20.37796018713704,75.10042182431846,48.03537559147733],[-29.208885664522317,-310.72702131603324,-43.78069689562133,150.34222383005812],[-370.82229468522013,114.34827750482607,52.373990464775304,-45.8939575051296],[-447.23708579931224,386.9226101580161,-33.10346250370788,-28.945592732064455],[-6.655269691185403,-70.78251329750586,-269.2182097271124,59.86387930187972],[-34.87072834135777,51.371212265696286,-222.42489143920997,263.05557832707717]]},"weights_ho":{"rows":1,"cols":6,"data":[[-23.91022954999425,-185.00514610224064,-15.4779839700144,-298.3586041499088,-77.59437554881202,250.95845746686166]]},"bias_h":{"rows":6,"cols":1,"data":[[-112.70409393555937],[-152.95279573031928],[-1.3743570683692141],[183.1944247101384],[-385.60283586635893],[51.033322792019455]]},"bias_o":{"rows":1,"cols":1,"data":[[69.46265355998227]]},"learning_rate":0.1,"activation_function":{}},{"input_nodes":4,"hidden_nodes":6,"output_nodes":1,"weights_ih":{"rows":6,"cols":4,"data":[[-93.839709426123,221.9569238052066,-159.22783182268648,298.50331801349523],[-307.9054124466216,-254.62676914361225,-279.52951794360047,261.50781396530436],[-194.03701708194825,-105.47702135382939,30.157198307084727,-93.24647452533941],[-424.1034120614056,319.3435858121,58.6539308675509,-48.1813792855149],[365.8469800678218,167.90893236281178,-128.18549425543307,-63.77336096697731],[272.56719002603364,-299.0633512810376,28.246300574109767,32.961448567779726]]},"weights_ho":{"rows":1,"cols":6,"data":[[-72.17747124691378,-80.18357528420422,-17.21001378478349,-146.395717529781,-244.1616350443428,-67.5672674515643]]},"bias_h":{"rows":6,"cols":1,"data":[[-341.0523450276102],[-526.4337417727633],[409.34203749256574],[-20.598913645625558],[-224.09203543871573],[-72.91194680819576]]},"bias_o":{"rows":1,"cols":1,"data":[[181.3317957398565]]},"learning_rate":0.1,"activation_function":{}},{"input_nodes":4,"hidden_nodes":6,"output_nodes":1,"weights_ih":{"rows":6,"cols":4,"data":[[208.54992478656845,-161.32375344138632,-176.77341972952607,-41.4405060943452],[-353.704285185178,-202.72348062115645,-278.0827626632269,-176.90131176451717],[-436.0811083023396,118.90559713228522,231.13971167763367,-71.18202497494237],[-727.0225878734313,614.2913693485473,238.86860122908195,-119.36449226509286],[117.43985257787075,93.15010858998369,111.14370436828064,-212.8746801726876],[-357.9381879099466,47.07696635458048,-92.70596119645049,-48.77212671886488]]},"weights_ho":{"rows":1,"cols":6,"data":[[-169.63480260868053,208.64726282520658,392.2339974155133,-414.99312441871723,194.02504566868933,54.085354749819814]]},"bias_h":{"rows":6,"cols":1,"data":[[-294.26201528901436],[-167.63035718301379],[343.76900768871735],[124.26693757746744],[-7.367364489762906],[36.88755770534611]]},"bias_o":{"rows":1,"cols":1,"data":[[50.92529144256977]]},"learning_rate":0.1,"activation_function":{}}]'

