{
    "input_nodes": 4,
    "hidden_nodes": 6,
    "output_nodes": 1,
    "weights_ih": {
        "rows": 6,
        "cols": 4,
        "data": [
            [
                -0.25510560050268427,
                0.4554156456879633,
                -0.23214347758061535,
                -0.7842583431909198
            ],
            [
                -0.3129054812183046,
                -0.20192555149785363,
                -0.7966832611134207,
                0.19890609659467148
            ],
            [
                -0.8344241454402976,
                0.4282144396852367,
                0.43943183054051665,
                -0.40818981286852246
            ],
            [
                0.7436982242756498,
                0.007831759772751343,
                -0.06905056730614086,
                -0.6757037683782161
            ],
            [
                1.0452903286398685,
                -0.38287304751313955,
                -0.31822039747208936,
                0.23321707930471783
            ],
            [
                0.11623776793634451,
                0.9690333650433197,
                -0.7576132079736185,
                0.8326840730842092
            ]
        ]
    },
    "weights_ho": {
        "rows": 1,
        "cols": 6,
        "data": [
            [
                -0.4611806679933502,
                0.6786060053858248,
                -0.9854994802443876,
                0.39472637385613446,
                0.21257293893372953,
                -0.1370833860492653
            ]
        ]
    },
    "bias_h": {
        "rows": 6,
        "cols": 1,
        "data": [
            [
                -0.3606617371531483
            ],
            [
                -0.8705940114946872
            ],
            [
                -0.6315074422118062
            ],
            [
                -0.3120312366449903
            ],
            [
                -0.5464101190032246
            ],
            [
                0.026140050799480077
            ]
        ]
    },
    "bias_o": {
        "rows": 1,
        "cols": 1,
        "data": [
            [
                0.15407347875676827
            ]
        ]
    },
    "learning_rate": 0.1,
    "activation_function": {}
}